NNUE 1
520 20 4 1
0.003523 0.065425 -0.069129 0.004465 0.083642 -0.068075 0.002983 0.076262 -0.073982 0.001124 0.077417 -0.071464 0.006241 0.079753 -0.066592 0.003462 0.074639 -0.065208 0.002555 0.088030 -0.070787 0.001260 0.077826 -0.074050 0.005889 0.084043 -0.066996 0.006893 0.075314 -0.066062 0.002243 0.083291 -0.063425 0.001012 0.061337 -0.058196 0.006344 0.066351 -0.074446 -0.004239 0.070354 -0.081456 0.009487 0.069618 -0.080080 -0.000799 0.091901 -0.064762 -0.000036 0.068028 -0.073254 0.006092 0.074200 -0.074582 0.002511 0.070261 -0.080780 -0.003741 0.078797 -0.078668 0.004235 0.081184 -0.077787 0.011059 0.079851 -0.071364 0.000364 0.080085 -0.072582 0.003959 0.071173 -0.074413 0.005418 0.086277 -0.077293 0.004079 0.073539 -0.068451 -0.005671 0.079211 -0.069153 0.001501 0.084661 -0.072922 0.000355 0.084689 -0.075603 0.001328 0.087478 -0.069464 0.009614 0.080450 -0.065638 0.003731 0.065151 -0.082851 0.005479 0.074466 -0.068481 -0.002548 0.082014 -0.083065 0.011421 0.079521 -0.072099 -0.007681 0.074026 -0.078184 0.005098 0.084774 -0.078541 0.012445 0.078268 -0.063779 0.001469 0.082552 -0.073714 0.002194 0.074347 -0.076630 0.005130 0.072826 -0.062623 -0.006285 0.072939 -0.076917 0.003269 0.072570 -0.078510 0.004247 0.087498 -0.069521 0.010338 0.081884 -0.072266 0.013327 0.086365 -0.081985 0.003995 0.077602 -0.068553 -0.001737 0.071495 -0.071100 0.002579 0.083050 -0.061361 0.007785 0.079009 -0.074334 -0.003756 0.068294 -0.073454 -0.002381 0.088584 -0.076202 -0.000303 0.071150 -0.082530 -0.002069 0.079002 -0.073237 -0.001784 0.074374 -0.067098 0.000681 0.073631 -0.071580 -0.007162 0.077993 -0.073974 0.003027 0.073172 -0.081209 0.020272 0.077942 -0.053386 0.007512 0.079368 -0.075586 0.000526 0.075986 -0.069749 0.002200 0.081245 -0.072908 0.004814 0.067882 -0.067796 -0.002400 0.074797 -0.067743 0.008562 0.074335 -0.081846 -0.001991 0.083783 -0.070991 0.012177 0.074672 -0.069697 -0.002837 0.077743 -0.070462 0.007715 0.091289 -0.075121 -0.001485 0.070646 -0.067884 -0.003567 0.073771 -0.076081 0.006280 0.078722 -0.076576 0.011153 0.080555 -0.073825 0.003836 0.076230 -0.064051 -0.005198 0.080989 -0.078496 0.008416 0.074863 -0.072821 0.014993 0.072647 -0.068221 0.005894 0.072202 -0.067906 0.003525 0.073578 -0.071807 0.007421 0.074112 -0.077425 -0.000242 0.079484 -0.079807 0.002838 0.073508 -0.059100 -0.003753 0.076113 -0.079807 0.007886 0.082884 -0.063869 0.001843 0.072832 -0.078791 -0.001010 0.088232 -0.072651 0.006500 0.080493 -0.060912 0.013954 0.076145 -0.073411 0.005062 0.075770 -0.070202 0.001788 0.072319 -0.077110 -0.002066 0.066653 -0.075660 0.009032 0.086978 -0.076719 -0.006300 0.074034 -0.080104 0.007521 0.075749 -0.063293 0.013689 0.079114 -0.081122 -0.002349 0.067816 -0.059796 0.006377 0.080368 -0.069967 -0.001648 0.073899 -0.075798 -0.001474 0.084436 -0.083581 0.003328 0.079668 -0.066124 -0.000183 0.078232 -0.072563 0.000814 0.081457 -0.081265 0.003366 0.070154 -0.071798 0.010047 0.071765 -0.067658 0.003243 0.073881 -0.075973 -0.005409 0.064047 -0.066873 -0.000555 0.078866 -0.067690 -0.004014 0.082135 -0.080318 0.006220 0.075610 -0.072291 0.005964 0.078625 -0.066646 0.016956 0.077182 -0.069213 -0.001998 0.085060 -0.074737 0.008815 0.082678 -0.072707 0.005045 0.075722 -0.068682 -0.005929 0.071573 -0.070031 0.004574 0.075787 -0.070606 -0.007024 0.071351 -0.074233 0.004778 0.076653 -0.069856 0.011459 0.076867 -0.083425 0.005443 0.081238 -0.073293 0.003523 0.073201 -0.072694 -0.001086 0.063178 -0.077895 -0.004430 0.078498 -0.081242 0.008642 0.080327 -0.083271 0.001800 0.071832 -0.072148 0.006956 0.086819 -0.064116 0.005325 0.078560 -0.069621 0.001567 0.073601 -0.065338 -0.003962 0.075952 -0.073899 0.005515 0.077026 -0.072124 0.003327 0.078622 -0.067090 0.005712 0.076082 -0.084495 0.007325 0.074584 -0.071174 0.006772 0.083958 -0.074040 0.006462 0.070713 -0.062790 -0.003701 0.071887 -0.073157 0.004996 0.088622 -0.063495 0.002318 0.075640 -0.077423 0.011446 0.075731 -0.066067 0.001150 0.077689 -0.068933 0.001185 0.065819 -0.075060 0.009678 0.084250 -0.067881 0.002777 0.068759 -0.072162 0.001275 0.080201 -0.071549 0.011368 0.065683 -0.071594 -0.010734 0.067760 -0.077909 0.014300 0.082954 -0.080061 0.004891 0.074026 -0.055442 0.003531 0.083068 -0.082801 0.002680 0.086182 -0.081418 0.004586 0.084098 -0.074260 0.007977 0.074441 -0.067644 -0.002796 0.080866 -0.066425 -0.005711 0.083754 -0.077863 0.005073 0.096323 -0.072803 0.010100 0.074601 -0.069541 0.001342 0.075242 -0.075995 0.007449 0.076616 -0.069678 0.009458 0.074747 -0.075475 -0.000530 0.080398 -0.078638 0.006655 0.077865 -0.061583 0.007334 0.074635 -0.080181 -0.001078 0.081451 -0.070672 0.013824 0.076241 -0.080689 0.002068 0.072427 -0.063400 -0.004861 0.075181 -0.076277 -0.005387 0.071474 -0.072535 -0.000958 0.084294 -0.076628 -0.001506 0.080106 -0.078134 -0.009058 0.077384 -0.081151 0.521140 0.006449 0.047746 -0.011963 0.105064 -0.198956 0.035174 -0.150158 0.128020 -0.272720 -0.008863 -0.187625 0.178300 -0.013209 -0.191435 0.159961 -0.018792 -0.194001 0.166852 -0.010403 -0.185771 0.173609 -0.024558 -0.192200 0.162272 -0.008810 -0.191413 0.175889 -0.023231 -0.190193 0.168300 -0.016585 -0.203965 0.154704 -0.018095 -0.207579 0.168476 -0.022631 -0.201371 0.175995 -0.026993 -0.200136 0.173218 -0.012418 -0.195838 0.169111 -0.019989 -0.185781 0.166756 -0.013670 -0.197884 0.175869 -0.020729 -0.194579 0.168532 -0.016297 -0.191045 0.161601 -0.004162 -0.179661 0.178568 -0.013866 -0.189528 0.178595 -0.019064 -0.184900 0.169372 -0.003195 -0.182967 0.170785 -0.023260 -0.184675 0.171146 -0.021262 -0.191074 0.166357 -0.016919 -0.187008 0.163335 -0.018580 -0.196886 0.180141 -0.019550 -0.190518 0.167969 -0.019534 -0.201878 0.162184 -0.017364 -0.188763 0.178101 -0.015113 -0.191352 0.172691 -0.025648 -0.190158 0.166444 -0.026155 -0.186167 0.163511 -0.020157 -0.192423 0.174975 -0.019071 -0.193343 0.172967 -0.008501 -0.195172 0.169493 -0.010953 -0.193362 0.167743 -0.012208 -0.205510 0.176431 -0.026906 -0.187892 0.152619 -0.014175 -0.192575 0.168684 -0.016988 -0.192407 0.171662 -0.027567 -0.187101 0.172638 -0.020821 -0.202771 0.165503 -0.012881 -0.196791 0.162936 -0.019975 -0.194896 0.166886 -0.019080 -0.198996 0.169629 -0.022752 -0.191460 0.167004 -0.013771 -0.187009 0.175168 -0.024211 -0.193734 0.165985 -0.015961 -0.188544 0.168749 -0.011715 -0.183811 0.167652 -0.010572 -0.197860 0.167643 -0.020596 -0.198406 0.171468 -0.021139 -0.192135 0.177133 -0.010843 -0.184369 0.167721 -0.020632 -0.193917 0.172575 -0.020245 -0.196150 0.164080 -0.019262 -0.185256 0.168705 -0.019054 -0.193821 0.153190 -0.017646 -0.192240 0.168994 -0.023187 -0.192249 0.166926 -0.028277 -0.206770 0.165360 -0.021213 -0.197956 0.164942 -0.027014 -0.189109 0.158895 -0.033506 -0.194451 0.166174 -0.019964 -0.201585 0.167416 -0.012898 -0.192304 0.172621 -0.022016 -0.200894 0.171747 -0.018980 -0.185354 0.168921 -0.016068 -0.199075 0.169567 -0.013015 -0.192820 0.162332 -0.009551 -0.177677 0.169519 -0.025383 -0.197129 0.158105 -0.030775 -0.195598 0.165134 -0.021085 -0.198902 0.175363 -0.017615 -0.193875 0.165476 -0.026733 -0.193591 0.168163 -0.009473 -0.196367 0.157794 -0.020233 -0.188028 0.169741 -0.019597 -0.184529 0.174780 -0.014209 -0.188561 0.163401 -0.021462 -0.199216 0.166836 -0.026403 -0.204205 0.173068 -0.025592 -0.187058 0.168965 -0.018305 -0.185211 0.152686 -0.019834 -0.208081 0.162097 -0.021241 -0.189473 0.175889 -0.008326 -0.196411 0.172827 -0.010815 -0.199886 0.174991 -0.015165 -0.192351 0.171977 -0.018755 -0.202185 0.168537 -0.020775 -0.191204 0.169235 -0.028597 -0.204372 0.159548 -0.021489 -0.194352 0.162386 -0.026630 -0.199069 0.158762 -0.023496 -0.192161 0.169888 -0.018255 -0.194807 0.170582 -0.008822 -0.181182 0.172375 -0.021719 -0.202613 0.167444 -0.020859 -0.186667 0.161256 -0.030506 -0.197336 0.154842 -0.025504 -0.194593 0.162130 -0.023079 -0.194703 0.176866 -0.015861 -0.199167 0.169715 -0.012710 -0.200088 0.167425 -0.017799 -0.189953 0.167840 -0.012858 -0.188911 0.173222 -0.007921 -0.197818 0.176097 -0.017571 -0.197409 0.168034 -0.019188 -0.196805 0.163311 -0.025931 -0.189776 0.176265 -0.028420 -0.190420 0.168078 -0.025576 -0.199174 0.173592 -0.027859 -0.192491 0.166264 -0.018724 -0.198577 0.164664 -0.021573 -0.191060 0.170241 -0.021606 -0.191720 0.171324 -0.025162 -0.200603 0.173521 -0.014687 -0.197703 0.171544 -0.017952 -0.191746 0.155505 -0.018207 -0.183746 0.168176 -0.009083 -0.185646 0.167291 -0.019468 -0.173188 0.174484 -0.014310 -0.178677 0.174345 -0.013856 -0.182804 0.168506 -0.021045 -0.206170 0.169549 -0.023520 -0.194358 0.162941 -0.013220 -0.195924 0.166772 -0.026320 -0.187307 0.168971 -0.023260 -0.204954 0.155542 -0.022717 -0.199784 0.165782 -0.020171 -0.197753 0.167078 -0.021466 -0.191836 0.169527 -0.020771 -0.194717 0.166091 -0.025877 -0.195996 0.163792 -0.022967 -0.193465 0.176218 -0.021139 -0.195964 0.168660 -0.025675 -0.186910 0.174125 -0.009201 -0.194407 0.183608 -0.020675 -0.199123 0.159549 -0.011015 -0.200318 0.166509 -0.008318 -0.193402 0.167526 -0.020513 -0.181439 0.172552 -0.021740 -0.194310 0.170282 -0.023556 -0.195550 0.171985 -0.011709 -0.187647 0.183935 -0.017875 -0.185554 0.167379 -0.022082 -0.196539 0.172759 -0.024222 -0.194357 0.150411 -0.023661 -0.198273 0.167573 -0.023342 -0.183602 0.165897 -0.019523 -0.186008 0.170666 -0.015043 -0.196892 0.165093 -0.015772 -0.197086 0.173166 -0.022826 -0.201947 0.163301 -0.007536 -0.179241 0.181125 -0.011385 -0.191798 0.163216 -0.009207 -0.191498 0.172385 -0.025512 -0.190347 0.175716 -0.016236 -0.204143 0.169684 -0.020208 -0.184873 0.167466 -0.013491 -0.192603 0.172368 -0.017360 -0.180942 0.158243 -0.016846 -0.187639 0.174365 -0.015449 -0.191676 0.174061 -0.018737 -0.190468 0.176354 -0.020263 -0.192243 0.168109 -0.011115 -0.186010 0.175746 -0.017123 -0.195983 0.179436 -0.021980 -0.201642 0.174541 -0.010105 -0.178052 0.167083 -0.016581 -0.185588 0.168508 -0.013176 -0.192808 0.162439 -0.390477 0.018639 -0.128781 -0.251809 -0.422916 0.697941 -0.301797 0.495105 -0.437388 0.893267 -0.017692 0.078684 -0.083599 0.011050 0.074845 -0.054994 0.006472 0.075752 -0.063631 -0.000809 0.067386 -0.073443 0.021134 0.087046 -0.057654 -0.007669 0.072755 -0.076996 -0.008262 0.076099 -0.079453 0.000678 0.079296 -0.082137 -0.016766 0.073317 -0.080278 -0.013919 0.059574 -0.077792 0.006302 0.084785 -0.079691 -0.011035 0.063645 -0.085635 -0.005091 0.084129 -0.075090 -0.000018 0.077235 -0.077420 0.014929 0.091882 -0.059172 -0.003276 0.053351 -0.077223 -0.005685 0.076668 -0.078418 0.003646 0.066869 -0.073354 -0.009989 0.071105 -0.083089 -0.005394 0.074722 -0.072762 0.010040 0.091945 -0.070513 0.000659 0.075866 -0.070164 0.009028 0.094506 -0.064072 0.005058 0.068851 -0.072243 -0.014982 0.072996 -0.085059 0.010684 0.076902 -0.083724 0.004555 0.073887 -0.068711 0.018978 0.093045 -0.059848 0.000306 0.081234 -0.082820 0.000343 0.073686 -0.057550 0.008057 0.088275 -0.068181 0.012549 0.071994 -0.068133 0.010763 0.095803 -0.052807 0.008470 0.068113 -0.071111 0.017572 0.085171 -0.059750 -0.003410 0.073653 -0.068508 -0.005875 0.072572 -0.084172 -0.008208 0.073884 -0.080070 -0.000876 0.081155 -0.062885 -0.004800 0.071014 -0.086312 -0.013268 0.075288 -0.075684 -0.002710 0.070659 -0.071058 -0.018659 0.070759 -0.075424 -0.008709 0.069834 -0.086051 0.003859 0.081275 -0.067400 0.000484 0.088846 -0.068467 -0.004270 0.067925 -0.081966 0.016520 0.083412 -0.063699 0.006648 0.085981 -0.060869 0.009812 0.081897 -0.071608 0.011147 0.079887 -0.065089 0.001354 0.080255 -0.075392 -0.001328 0.075918 -0.073507 0.006707 0.084406 -0.060230 0.012908 0.085902 -0.066951 -0.006605 0.077233 -0.084983 -0.008544 0.070335 -0.067770 -0.008532 0.066754 -0.081618 0.022972 0.091489 -0.057681 -0.004356 0.080498 -0.082479 -0.002723 0.072716 -0.070012 0.011866 0.079353 -0.072014 0.001338 0.072977 -0.075803 -0.001499 0.087756 -0.066361 0.004756 0.074127 -0.060415 -0.005853 0.082671 -0.083118 -0.000588 0.078018 -0.065538 -0.004971 0.068349 -0.073836 0.003125 0.070177 -0.073475 0.007462 0.075654 -0.076098 0.017454 0.085757 -0.065264 0.003119 0.072865 -0.077991 -0.003293 0.073096 -0.065968 -0.001349 0.083560 -0.076697 -0.000816 0.072221 -0.080331 0.006744 0.079430 -0.062291 -0.008226 0.080198 -0.075767 0.008888 0.083178 -0.064396 -0.006688 0.077363 -0.077630 -0.019031 0.068015 -0.080521 -0.002282 0.071983 -0.065647 0.003815 0.073126 -0.067005 0.013614 0.078219 -0.071049 0.005466 0.082978 -0.069465 0.012811 0.083661 -0.057263 0.008559 0.082204 -0.065717 0.005540 0.082316 -0.056109 0.003840 0.078252 -0.063465 0.010376 0.081690 -0.075882 0.012333 0.074550 -0.065043 -0.013317 0.069819 -0.080044 0.000706 0.081146 -0.073981 0.006366 0.092440 -0.063931 -0.012501 0.066055 -0.086325 0.001050 0.086146 -0.066273 0.006254 0.084950 -0.070908 0.000330 0.066482 -0.075687 0.004024 0.076430 -0.075931 -0.002211 0.075023 -0.082132 -0.000376 0.069095 -0.066212 -0.008106 0.074369 -0.079321 -0.006680 0.064547 -0.066048 -0.014241 0.071916 -0.078209 0.003056 0.082097 -0.068062 0.001526 0.069327 -0.065936 0.001496 0.058187 -0.071372 0.003915 0.080601 -0.073738 0.002421 0.090790 -0.068044 0.018380 0.089493 -0.057355 0.017329 0.102965 -0.065567 -0.013869 0.061766 -0.081454 0.009403 0.084980 -0.061332 0.015993 0.091813 -0.065128 0.006075 0.088555 -0.064622 0.002331 0.076180 -0.079503 -0.004993 0.061837 -0.069309 0.004520 0.084799 -0.077470 -0.007985 0.068024 -0.060745 -0.010782 0.083452 -0.090959 -0.005516 0.075204 -0.068875 -0.002306 0.069943 -0.069852 -0.010770 0.071193 -0.082507 0.011520 0.080330 -0.073252 0.017382 0.091972 -0.062565 -0.014761 0.063361 -0.080881 -0.005028 0.080712 -0.084874 0.016835 0.079534 -0.059999 -0.007721 0.077073 -0.085505 0.007543 0.081581 -0.065090 0.016394 0.091428 -0.061831 0.005205 0.079280 -0.071890 0.002908 0.088608 -0.077628 0.007199 0.072975 -0.078519 -0.012598 0.075579 -0.076569 -0.009241 0.074075 -0.088744 0.004346 0.076287 -0.065371 -0.017455 0.056068 -0.075266 0.005830 0.089936 -0.070639 -0.001776 0.076936 -0.071588 -0.010053 0.067900 -0.072410 -0.002796 0.071642 -0.064527 0.005417 0.082304 -0.073127 -0.003875 0.071185 -0.075564 -0.014078 0.073006 -0.073309 0.012134 0.082527 -0.082419 -0.010866 0.065493 -0.089103 -0.013836 0.065077 -0.084235 0.001750 0.086514 -0.076086 -0.006634 0.059772 -0.084016 -0.009788 0.067193 -0.079363 -0.004088 0.090387 -0.072582 0.005361 0.076723 -0.061909 -0.009363 0.072095 -0.085282 -0.013032 0.071371 -0.087577 -0.001842 0.073246 -0.071575 0.001573 0.077656 -0.060223 0.013109 0.083799 -0.073619 -0.001626 0.072722 -0.076761 0.011419 0.089012 -0.061443 0.013793 0.088111 -0.073643 0.000258 0.087764 -0.083228 0.001636 0.084005 -0.069703 0.004407 0.084424 -0.058715 0.000047 0.072461 -0.079901 -0.004948 0.062070 -0.079933 -0.001871 0.066139 -0.070331 0.000204 0.088596 -0.066116 -0.007489 0.055947 -0.073717 -0.002628 0.081069 -0.073064 -0.006555 0.081605 -0.064928 0.141568 0.010995 0.114465 0.126707 0.286713 -0.498576 0.195175 -0.389343 0.234120 -0.386342 0.004221 0.138166 -0.127502 -0.006901 0.137056 -0.126117 -0.005417 0.147516 -0.111338 0.000966 0.136499 -0.148310 0.008633 0.133231 -0.120764 0.015896 0.152059 -0.128446 0.020424 0.138688 -0.116827 0.002471 0.125060 -0.125954 0.008727 0.140375 -0.105853 -0.000780 0.126043 -0.129749 0.022155 0.134412 -0.126527 0.017897 0.130666 -0.118195 0.013375 0.148509 -0.115130 -0.007878 0.130318 -0.144963 0.000392 0.131942 -0.132495 -0.000300 0.135073 -0.121864 -0.003043 0.116925 -0.116788 -0.008625 0.134011 -0.130378 0.002197 0.125768 -0.120833 0.007860 0.137983 -0.142913 0.005406 0.132180 -0.136780 0.013567 0.138366 -0.131659 0.006828 0.141882 -0.119451 0.014580 0.136359 -0.123473 -0.009600 0.120093 -0.107938 0.007424 0.149799 -0.099212 -0.003258 0.132180 -0.146479 0.016679 0.142420 -0.123327 0.002686 0.122945 -0.133663 0.003578 0.124404 -0.114756 0.004081 0.125145 -0.113944 0.000354 0.137078 -0.129012 0.004976 0.123850 -0.159576 -0.009065 0.144429 -0.114828 0.006759 0.139802 -0.116240 0.013044 0.122575 -0.143354 -0.002325 0.154920 -0.138706 -0.004320 0.129361 -0.131973 -0.001575 0.132637 -0.121138 0.009297 0.138680 -0.130406 -0.006039 0.135049 -0.110606 0.026343 0.131674 -0.128868 0.003812 0.124380 -0.126559 0.003582 0.118442 -0.126957 -0.010805 0.120479 -0.136722 -0.002143 0.130191 -0.133261 -0.005349 0.134458 -0.150865 0.005219 0.135697 -0.134479 0.009844 0.141267 -0.139987 0.010565 0.124890 -0.126191 0.014735 0.144924 -0.133122 0.014429 0.122914 -0.143724 0.004360 0.142399 -0.122586 0.016892 0.135709 -0.107289 0.017224 0.141085 -0.112111 0.009944 0.138247 -0.125766 -0.000238 0.122500 -0.121002 -0.005531 0.141093 -0.133471 0.004942 0.139055 -0.117404 -0.003260 0.134220 -0.142235 -0.001408 0.113011 -0.129046 0.013435 0.120139 -0.113155 0.011792 0.139645 -0.116901 0.020612 0.133181 -0.123601 0.007842 0.141127 -0.112702 -0.004650 0.115697 -0.125933 0.009521 0.146255 -0.126668 0.013648 0.140106 -0.112050 0.000996 0.116999 -0.136624 0.008377 0.136378 -0.111917 0.012734 0.136515 -0.125074 0.018187 0.126802 -0.118078 0.017798 0.133071 -0.097865 0.014652 0.140521 -0.151243 -0.000910 0.139537 -0.134439 -0.016630 0.117554 -0.133036 0.004508 0.136604 -0.120897 0.020359 0.125179 -0.101384 -0.003003 0.154302 -0.105704 0.008825 0.141631 -0.116104 0.012183 0.142790 -0.118302 0.019207 0.126092 -0.100542 0.008891 0.119615 -0.133108 0.009547 0.119080 -0.120438 0.005811 0.145001 -0.111930 -0.009297 0.115850 -0.133756 0.015367 0.132328 -0.140916 0.004833 0.109930 -0.109238 -0.002222 0.121584 -0.112669 0.004219 0.130966 -0.127826 0.000282 0.138329 -0.143337 0.006358 0.122558 -0.136618 0.007196 0.141741 -0.131116 -0.002519 0.122911 -0.121950 0.010345 0.116053 -0.137352 0.024924 0.120047 -0.126325 0.008105 0.133392 -0.126482 0.001520 0.132532 -0.116530 -0.004584 0.131783 -0.137780 -0.000812 0.150754 -0.123393 0.003341 0.117872 -0.137873 -0.004725 0.148486 -0.136147 0.010805 0.129958 -0.117671 -0.006292 0.133761 -0.146728 -0.003536 0.124668 -0.122917 0.018910 0.132887 -0.109305 0.012070 0.113532 -0.107335 0.006853 0.126845 -0.133955 -0.013404 0.125697 -0.136957 -0.003935 0.121136 -0.128955 -0.000550 0.124715 -0.138748 0.022679 0.138595 -0.123633 0.003191 0.109171 -0.134031 0.017578 0.141915 -0.118074 0.020476 0.135887 -0.125350 0.017605 0.126669 -0.125359 -0.005320 0.107876 -0.127581 0.022831 0.133677 -0.099224 -0.000053 0.139831 -0.126920 -0.013116 0.143919 -0.122879 0.001609 0.122941 -0.129150 -0.001994 0.100876 -0.121543 -0.012756 0.141557 -0.139186 -0.006794 0.117587 -0.125214 0.012231 0.140520 -0.114017 0.025260 0.146020 -0.105625 -0.006296 0.136516 -0.141138 0.006589 0.124936 -0.109227 0.008918 0.116636 -0.120392 0.001271 0.127221 -0.122629 -0.010867 0.130022 -0.143550 0.007236 0.106158 -0.144017 0.004053 0.148393 -0.135955 0.025571 0.143459 -0.118027 -0.011662 0.122861 -0.128284 0.017871 0.135629 -0.129637 0.011417 0.123377 -0.113293 0.000407 0.132351 -0.146751 0.008406 0.133079 -0.111507 0.008232 0.134303 -0.115451 -0.016386 0.122274 -0.129225 -0.012755 0.105346 -0.130709 0.028245 0.147340 -0.094056 0.018711 0.142134 -0.128015 0.006603 0.125326 -0.129012 0.028285 0.136033 -0.112794 -0.005221 0.123017 -0.130574 0.011591 0.134466 -0.113050 0.005354 0.122897 -0.131844 0.003574 0.122892 -0.126386 0.008608 0.148666 -0.130281 -0.006378 0.109231 -0.149277 -0.008044 0.138672 -0.127426 -0.014898 0.104484 -0.137035 -0.000733 0.128516 -0.138394 -0.005361 0.115174 -0.140221 -0.010425 0.129198 -0.132806 0.025039 0.126428 -0.138557 0.006119 0.126395 -0.110130 0.003830 0.134565 -0.132946 -0.010493 0.104391 -0.142403 0.003278 0.116533 -0.122255 -0.011604 0.111560 -0.146249 0.025558 0.142574 -0.112751 0.014400 0.125566 -0.109460 -0.003629 0.127580 -0.131418 0.009258 0.130373 -0.145228 -0.001053 0.120640 -0.113262 0.006652 0.126013 -0.115535 0.023101 0.153844 -0.125343 0.143357 0.066735 0.057448 0.043709 0.243189 -0.412495 0.162568 -0.349784 0.253033 -0.462236 -0.008414 -0.143202 0.131959 -0.002231 -0.141845 0.134558 0.001125 -0.137022 0.138373 -0.010026 -0.160733 0.137127 -0.003860 -0.146799 0.138961 0.001855 -0.138909 0.134082 -0.004830 -0.148328 0.139089 -0.002461 -0.140850 0.129075 0.000555 -0.145533 0.136172 -0.009192 -0.148507 0.127526 -0.008094 -0.140564 0.137255 0.001411 -0.136918 0.144053 0.005826 -0.143296 0.127024 0.000969 -0.142772 0.134537 -0.002378 -0.148341 0.137156 -0.000852 -0.137422 0.143750 -0.002998 -0.135539 0.128772 -0.007174 -0.136860 0.133174 -0.004652 -0.146288 0.130979 -0.001809 -0.143069 0.137101 -0.007338 -0.148179 0.126346 0.000176 -0.148966 0.146345 0.002405 -0.140482 0.143161 -0.003716 -0.137530 0.135122 -0.000578 -0.139799 0.130194 -0.001652 -0.138851 0.136662 0.002489 -0.132072 0.139497 -0.001046 -0.145720 0.139536 -0.010619 -0.149242 0.132669 -0.007433 -0.141252 0.133871 -0.006584 -0.136434 0.125978 -0.009386 -0.139249 0.137004 -0.007343 -0.134392 0.136430 0.003326 -0.138604 0.139156 -0.009893 -0.146491 0.132716 -0.010133 -0.143967 0.125412 -0.005253 -0.142593 0.127328 -0.011390 -0.143467 0.136897 -0.004460 -0.142532 0.130643 -0.007012 -0.147215 0.132189 -0.005674 -0.148454 0.132395 -0.000036 -0.144135 0.136449 -0.007824 -0.150556 0.125274 -0.005954 -0.145743 0.131998 0.007135 -0.136571 0.133666 -0.015493 -0.150274 0.131461 -0.003985 -0.133875 0.139568 -0.005498 -0.145413 0.136035 -0.008686 -0.147661 0.126426 0.001042 -0.142651 0.128927 0.001581 -0.141276 0.130792 0.004581 -0.129391 0.135786 -0.004593 -0.140797 0.142341 0.000186 -0.144602 0.134093 -0.002403 -0.141556 0.142644 -0.004967 -0.143441 0.131063 -0.004824 -0.145948 0.142557 -0.003917 -0.132478 0.137870 -0.006252 -0.146485 0.132591 -0.015805 -0.144040 0.126298 -0.011863 -0.148328 0.125527 -0.007117 -0.147764 0.132426 -0.012481 -0.143113 0.126129 -0.002013 -0.142328 0.135997 -0.007164 -0.153468 0.132772 -0.009845 -0.150436 0.125330 -0.006610 -0.148263 0.134239 -0.007751 -0.148864 0.123892 -0.005641 -0.137609 0.128087 -0.000129 -0.147052 0.133155 -0.017734 -0.145418 0.137231 -0.007116 -0.152826 0.129131 -0.005855 -0.145039 0.134973 -0.011345 -0.136487 0.130764 -0.001767 -0.146736 0.138724 0.001176 -0.142451 0.131766 -0.010584 -0.147748 0.118728 -0.000189 -0.140309 0.148435 -0.007038 -0.143751 0.126079 -0.012451 -0.129393 0.136187 -0.001434 -0.137025 0.126406 0.000186 -0.128401 0.130787 -0.008682 -0.138225 0.141321 -0.008153 -0.140493 0.125732 -0.012163 -0.141787 0.134039 0.003104 -0.133936 0.148033 -0.008455 -0.137446 0.131393 -0.008226 -0.148869 0.133773 -0.004738 -0.147122 0.129076 -0.002305 -0.144392 0.124438 -0.001556 -0.146102 0.139788 -0.008009 -0.132487 0.135879 -0.005686 -0.145040 0.142688 -0.008008 -0.145064 0.130391 -0.007205 -0.142350 0.131200 -0.012012 -0.151257 0.130463 0.002977 -0.145583 0.132030 -0.006935 -0.141079 0.132460 -0.011064 -0.147685 0.130318 -0.012232 -0.146248 0.123435 -0.010579 -0.155944 0.136460 -0.004535 -0.137321 0.141199 0.003099 -0.135990 0.132564 -0.001777 -0.147790 0.141495 -0.000852 -0.136845 0.133458 -0.008102 -0.153915 0.132468 -0.007770 -0.149947 0.126315 -0.001249 -0.138168 0.133916 -0.003657 -0.143878 0.130847 -0.006961 -0.141588 0.128240 -0.001850 -0.140138 0.132050 -0.004141 -0.143851 0.139028 -0.004310 -0.135359 0.135417 0.001373 -0.132143 0.137440 -0.005342 -0.134206 0.138078 -0.003693 -0.147668 0.139611 -0.002490 -0.139004 0.139924 -0.005990 -0.145864 0.139963 0.002032 -0.138857 0.139012 -0.008544 -0.144702 0.124876 -0.014079 -0.150539 0.123364 -0.007378 -0.152111 0.128887 -0.000996 -0.133732 0.134329 -0.011427 -0.135856 0.124373 -0.007859 -0.136518 0.131683 -0.001473 -0.142204 0.136295 -0.009164 -0.151303 0.128060 -0.003685 -0.153492 0.134654 -0.011058 -0.148015 0.133731 -0.003220 -0.146378 0.132411 -0.020206 -0.144997 0.129066 -0.006200 -0.149174 0.130341 -0.010614 -0.139852 0.123009 -0.006508 -0.153574 0.135966 0.003011 -0.141169 0.129843 -0.003164 -0.139773 0.141050 -0.004018 -0.147644 0.128339 -0.010808 -0.143954 0.136168 -0.010464 -0.139075 0.145330 -0.006060 -0.141503 0.132114 -0.009611 -0.133344 0.132592 -0.004413 -0.139867 0.137091 -0.004876 -0.144715 0.140904 -0.006655 -0.140501 0.135631 -0.005513 -0.138337 0.130875 -0.009339 -0.150959 0.131842 0.009017 -0.130344 0.144449 -0.003896 -0.140353 0.132347 -0.003577 -0.131337 0.136731 -0.008256 -0.149396 0.133793 -0.007171 -0.139042 0.133334 0.000430 -0.147597 0.132904 -0.014373 -0.160373 0.133951 -0.000438 -0.141436 0.125847 -0.002994 -0.144290 0.135617 -0.007888 -0.141840 0.121339 -0.003807 -0.140272 0.133948 -0.005566 -0.133657 0.144299 -0.002898 -0.148086 0.129046 -0.010294 -0.146158 0.128769 0.000693 -0.138437 0.146554 -0.004701 -0.139409 0.125419 -0.008241 -0.144600 0.124976 -0.001405 -0.143339 0.129144 -0.013819 -0.143565 0.122737 -0.016432 -0.142065 0.127817 -0.009854 -0.136426 0.126831 -0.002238 -0.152285 0.132902 -0.009345 -0.143189 0.136843 -0.003967 -0.150047 0.130074 -0.226302 0.049918 -0.105991 -0.109485 -0.377702 0.612649 -0.226999 0.477104 -0.345027 0.604325 0.001227 0.081581 -0.080765 0.003094 0.076463 -0.082616 0.005072 0.083765 -0.088473 -0.006054 0.070784 -0.075871 0.000372 0.082243 -0.083883 0.001770 0.077265 -0.074290 -0.006169 0.083031 -0.079640 0.002671 0.073971 -0.086935 -0.001542 0.063261 -0.080298 -0.005072 0.086543 -0.081440 -0.003567 0.089891 -0.075163 -0.004703 0.080270 -0.078843 -0.003373 0.081233 -0.086187 0.003228 0.094001 -0.080263 0.000280 0.076345 -0.072268 0.001098 0.084685 -0.085026 0.001765 0.096202 -0.074180 0.005001 0.076981 -0.078741 0.000606 0.083044 -0.077819 -0.004627 0.079052 -0.077912 0.006260 0.086117 -0.079203 0.008176 0.080238 -0.078864 0.006629 0.084467 -0.079340 0.004651 0.091501 -0.080965 0.002246 0.072569 -0.082255 0.002880 0.078095 -0.083327 -0.006458 0.082725 -0.076551 0.001147 0.082720 -0.085403 0.001669 0.079183 -0.078893 -0.002090 0.086964 -0.079809 0.004204 0.084495 -0.080133 0.005523 0.086720 -0.074191 0.006858 0.093977 -0.077798 0.009370 0.091822 -0.083962 0.005380 0.089232 -0.078700 0.008319 0.090355 -0.068819 0.007212 0.084943 -0.077505 -0.000142 0.078435 -0.088481 -0.001041 0.089673 -0.088432 0.006680 0.077708 -0.085463 0.009365 0.085742 -0.076361 0.003556 0.076494 -0.076634 0.011900 0.113510 -0.077520 0.003697 0.074821 -0.076788 -0.002389 0.093780 -0.083630 -0.003357 0.077827 -0.071064 -0.008001 0.079440 -0.068703 0.004884 0.078282 -0.090950 0.000759 0.082077 -0.073498 0.007364 0.078065 -0.072523 0.013331 0.080391 -0.074000 0.003923 0.081208 -0.083775 0.003115 0.079429 -0.075914 -0.008196 0.082292 -0.088668 0.001882 0.070189 -0.073604 -0.000763 0.084342 -0.082848 0.004048 0.082112 -0.078155 0.002485 0.082399 -0.082280 -0.003545 0.092275 -0.081464 0.001155 0.084086 -0.081443 0.001460 0.082297 -0.078776 -0.001409 0.084031 -0.077422 0.002009 0.076676 -0.072163 -0.004256 0.080745 -0.083119 -0.006837 0.084782 -0.077281 0.003500 0.078250 -0.073322 0.003529 0.092623 -0.089006 0.000731 0.068081 -0.076600 -0.000260 0.091230 -0.073579 0.002670 0.088563 -0.078440 0.002151 0.084897 -0.072611 -0.007742 0.078396 -0.097878 0.001157 0.102001 -0.088862 0.002655 0.077928 -0.071818 0.010863 0.084403 -0.075126 -0.000426 0.084536 -0.089252 0.001283 0.067326 -0.073687 0.002838 0.086333 -0.087716 0.003283 0.077239 -0.078243 -0.015974 0.081330 -0.088234 0.003860 0.078122 -0.068559 -0.008648 0.091344 -0.080479 0.001682 0.089310 -0.078495 -0.001232 0.077896 -0.074771 0.003296 0.078749 -0.085238 0.005909 0.078395 -0.079952 0.005543 0.083905 -0.071826 0.006965 0.089635 -0.077818 0.003622 0.075539 -0.077701 0.001981 0.089255 -0.079913 0.002405 0.085177 -0.078362 -0.002442 0.074398 -0.074735 -0.000290 0.070246 -0.071720 0.003690 0.091968 -0.086759 0.005661 0.086572 -0.075027 0.001969 0.090656 -0.071866 0.008706 0.088363 -0.076341 0.000395 0.071753 -0.078474 0.008986 0.085267 -0.080502 -0.000200 0.072296 -0.088608 0.000104 0.090453 -0.087261 0.009668 0.083486 -0.076051 0.002556 0.091839 -0.076847 -0.004164 0.071107 -0.074184 -0.000243 0.076504 -0.087332 -0.008068 0.082611 -0.082226 0.002432 0.083323 -0.081373 -0.002382 0.082387 -0.070605 0.006281 0.072889 -0.076456 -0.003908 0.089964 -0.072641 -0.008310 0.066882 -0.084820 -0.009347 0.084628 -0.083067 0.000142 0.088436 -0.082408 -0.001175 0.077907 -0.080972 0.002489 0.093817 -0.083720 0.006207 0.085385 -0.078554 -0.003023 0.086892 -0.083064 -0.000124 0.081442 -0.074716 -0.005017 0.086273 -0.094366 0.002099 0.087614 -0.085870 0.006567 0.076615 -0.076196 -0.000427 0.073927 -0.090828 0.005028 0.075442 -0.079898 0.001882 0.084054 -0.088577 0.003835 0.081985 -0.070865 -0.006260 0.068999 -0.078049 0.000860 0.086462 -0.082792 -0.007323 0.083203 -0.083426 -0.003956 0.082721 -0.080941 0.006066 0.070279 -0.088098 0.005130 0.081093 -0.074682 0.007924 0.101816 -0.075828 0.004714 0.095161 -0.075112 -0.003648 0.066554 -0.080801 0.012237 0.084330 -0.077594 0.007356 0.088480 -0.072560 -0.001338 0.088038 -0.102055 -0.001261 0.083636 -0.079275 0.003574 0.079264 -0.087308 0.001072 0.085293 -0.084405 -0.001332 0.089818 -0.077124 0.006102 0.082971 -0.083782 0.001094 0.078862 -0.092564 0.004940 0.084331 -0.073284 0.007827 0.079289 -0.068589 -0.008273 0.082594 -0.078405 0.000221 0.080265 -0.084223 0.013528 0.078727 -0.079363 0.004600 0.088043 -0.068709 0.005573 0.085560 -0.081306 0.006915 0.087009 -0.076027 -0.001247 0.090072 -0.074290 0.011778 0.094275 -0.070887 -0.005983 0.085954 -0.091864 0.002090 0.083675 -0.081110 0.003320 0.083086 -0.073861 -0.000547 0.080314 -0.081615 0.001851 0.087675 -0.082777 -0.004514 0.072258 -0.084824 0.006888 0.086470 -0.074213 -0.002918 0.078478 -0.077548 -0.002524 0.089499 -0.083600 0.003044 0.091944 -0.075285 -0.004505 0.079838 -0.083538 -0.009805 0.073864 -0.091448 -0.001992 0.090810 -0.090338 -0.009902 0.091926 -0.085978 -0.000992 0.076199 -0.077094 0.002876 0.084123 -0.069981 0.002026 0.096380 -0.074808 0.452534 -0.000683 0.115129 -0.002743 0.173894 -0.286845 0.082035 -0.189895 0.182616 -0.424023 -0.006475 0.070329 -0.107769 -0.001628 0.087144 -0.098319 0.000138 0.084980 -0.105140 0.006095 0.092850 -0.077158 0.003245 0.084495 -0.091252 0.002858 0.094450 -0.088777 0.005168 0.087571 -0.082488 0.000378 0.082830 -0.085846 -0.000786 0.100890 -0.109424 -0.012991 0.086216 -0.083070 -0.000762 0.088469 -0.076700 0.007340 0.082253 -0.062518 0.010488 0.087598 -0.083832 -0.001479 0.080409 -0.089769 0.009554 0.086263 -0.081406 -0.003809 0.088617 -0.094373 -0.002726 0.094688 -0.090128 0.005365 0.082933 -0.083931 -0.004973 0.085281 -0.091894 0.011136 0.096448 -0.086270 -0.019714 0.085967 -0.091773 -0.002354 0.086253 -0.089789 -0.006375 0.080321 -0.097094 0.005964 0.090837 -0.079088 0.008266 0.097618 -0.092407 0.006148 0.084633 -0.076102 0.007087 0.096231 -0.072233 0.012490 0.089383 -0.077960 -0.008398 0.083309 -0.088496 0.016934 0.104422 -0.090656 0.000202 0.084717 -0.095116 -0.007561 0.077378 -0.080340 -0.006370 0.083332 -0.077630 0.008392 0.091717 -0.095681 -0.005327 0.080541 -0.092245 -0.000454 0.097990 -0.075129 -0.002558 0.076359 -0.095899 0.006361 0.099885 -0.080211 0.009392 0.099177 -0.098371 0.013092 0.091137 -0.066908 0.007886 0.097293 -0.086422 0.008165 0.093751 -0.081321 0.002002 0.075368 -0.096957 -0.003439 0.084108 -0.077105 0.000766 0.093743 -0.087978 0.003473 0.083229 -0.090754 -0.000700 0.086426 -0.078757 -0.012546 0.090921 -0.094161 0.005912 0.085485 -0.082057 -0.000787 0.083026 -0.089667 -0.000463 0.079981 -0.082778 -0.001646 0.089125 -0.088342 0.013470 0.097954 -0.078257 0.018843 0.097112 -0.079141 0.009271 0.089289 -0.072864 0.012491 0.089798 -0.088904 0.006674 0.099641 -0.095658 0.010879 0.092120 -0.084887 -0.001625 0.081425 -0.076265 -0.009549 0.083745 -0.087659 -0.001956 0.089277 -0.098187 0.014817 0.098452 -0.081847 -0.000506 0.100758 -0.097086 0.004764 0.088310 -0.089371 0.004679 0.097514 -0.087646 0.003748 0.083819 -0.071373 -0.006399 0.082375 -0.100895 -0.006273 0.084274 -0.081425 0.000434 0.096355 -0.094724 0.003947 0.084636 -0.075742 -0.010667 0.086788 -0.087717 -0.000331 0.084657 -0.092528 -0.012191 0.094908 -0.094175 -0.000634 0.089883 -0.071423 0.004652 0.078687 -0.080439 0.006602 0.101344 -0.089054 0.017260 0.088225 -0.081411 -0.001696 0.097527 -0.084628 0.004088 0.077373 -0.083172 0.007885 0.093445 -0.081826 -0.006647 0.077570 -0.088785 0.008464 0.106339 -0.090920 -0.012004 0.089707 -0.074979 0.002130 0.100515 -0.094874 -0.001654 0.074595 -0.097207 -0.001588 0.073979 -0.076918 -0.013052 0.095505 -0.087327 0.005276 0.092878 -0.093700 -0.002050 0.088818 -0.093507 -0.000670 0.105026 -0.093875 0.003637 0.083496 -0.085865 0.015288 0.090115 -0.075820 -0.002274 0.094848 -0.078058 0.002008 0.086340 -0.080655 -0.003002 0.090669 -0.095411 -0.013626 0.089705 -0.092407 0.001294 0.097002 -0.085201 0.003611 0.088869 -0.086107 -0.007869 0.083848 -0.092133 0.011661 0.080584 -0.095587 0.002349 0.102986 -0.081718 -0.010556 0.076847 -0.086520 0.002020 0.106919 -0.093652 0.002670 0.086450 -0.103269 0.001714 0.091318 -0.093906 0.018039 0.090329 -0.076895 -0.001023 0.086812 -0.093743 0.013841 0.086933 -0.073413 0.010255 0.100488 -0.070464 0.006988 0.094141 -0.082598 0.012500 0.100115 -0.092964 0.010808 0.098332 -0.086447 0.004885 0.088733 -0.094727 0.009221 0.089059 -0.070787 -0.001291 0.092475 -0.085705 -0.005019 0.076653 -0.090847 0.004609 0.095135 -0.071946 -0.005861 0.085927 -0.094063 -0.013094 0.086717 -0.097083 -0.007496 0.078724 -0.113556 0.004175 0.085560 -0.099466 0.009029 0.096846 -0.077232 -0.007686 0.079684 -0.090865 -0.008980 0.082848 -0.099300 -0.002614 0.097828 -0.096278 0.006236 0.088829 -0.075721 0.008024 0.100048 -0.089140 -0.000624 0.095766 -0.095202 0.007116 0.098564 -0.078598 -0.000879 0.074533 -0.091090 0.011206 0.091480 -0.079749 -0.002472 0.088639 -0.069885 0.004620 0.099845 -0.085162 0.007577 0.098652 -0.076115 0.005434 0.085278 -0.095912 -0.011668 0.089960 -0.084006 -0.004729 0.101114 -0.106191 -0.003333 0.081906 -0.082873 0.003540 0.087931 -0.086107 -0.006183 0.082353 -0.103022 -0.003596 0.086338 -0.086139 0.000972 0.078002 -0.098886 -0.011915 0.088928 -0.093316 0.006851 0.098841 -0.089329 0.004816 0.103663 -0.073987 0.002896 0.099816 -0.071358 0.007436 0.087450 -0.101610 -0.003212 0.087327 -0.090203 0.001778 0.089776 -0.088619 -0.004842 0.072189 -0.100144 0.001863 0.089345 -0.091071 -0.006410 0.094523 -0.091579 -0.011943 0.079863 -0.085045 0.000812 0.094235 -0.102439 -0.003258 0.093407 -0.086447 0.001535 0.092965 -0.086421 0.022476 0.095532 -0.091463 0.007251 0.100063 -0.074867 0.002950 0.082501 -0.083426 0.005151 0.097887 -0.094299 -0.007586 0.092234 -0.086618 -0.014187 0.079656 -0.087672 -0.013536 0.093492 -0.096295 0.005222 0.089392 -0.081306 -0.001887 0.091330 -0.094108 -0.003032 0.099343 -0.087304 0.020460 0.072396 -0.082588 -0.004175 0.097386 -0.109373 -0.009058 0.106947 -0.087066 0.002269 0.075822 -0.093789 0.462461 -0.011857 0.129853 -0.007695 0.176099 -0.324271 0.083035 -0.185138 0.190015 -0.457580 -0.003602 0.100936 -0.082968 -0.017815 0.100236 -0.104370 0.010291 0.088104 -0.082483 0.028028 0.111081 -0.079369 -0.010034 0.084752 -0.103054 0.009318 0.110341 -0.085767 0.017998 0.105251 -0.106342 0.015914 0.109694 -0.075601 -0.014914 0.096450 -0.095905 0.008381 0.089402 -0.098354 -0.001811 0.090388 -0.100808 -0.011849 0.111004 -0.110831 -0.013344 0.071133 -0.113772 0.011730 0.107931 -0.079398 -0.010074 0.083227 -0.117887 0.012671 0.105484 -0.081491 0.011194 0.086255 -0.090726 0.011965 0.114202 -0.091120 0.017201 0.112225 -0.096518 -0.008699 0.087000 -0.094108 0.019269 0.103986 -0.083262 0.007892 0.105258 -0.092925 0.009505 0.105162 -0.091603 0.011808 0.105384 -0.077849 0.009936 0.110708 -0.092973 -0.004383 0.092495 -0.113498 -0.000742 0.089658 -0.104846 -0.014426 0.095043 -0.098235 -0.002618 0.096082 -0.101417 0.014925 0.120740 -0.087273 -0.010604 0.088041 -0.109656 -0.018276 0.090058 -0.086379 0.001141 0.105170 -0.092640 0.001950 0.105460 -0.104803 -0.005469 0.096617 -0.093227 0.005152 0.112719 -0.105877 -0.018592 0.102699 -0.097970 0.004628 0.106593 -0.099647 0.005113 0.101419 -0.088018 0.011697 0.091549 -0.095865 0.024519 0.118692 -0.075490 -0.011603 0.093830 -0.113228 0.016592 0.106014 -0.083431 -0.003506 0.098184 -0.099948 0.012109 0.101104 -0.088176 0.013351 0.101072 -0.093016 0.001011 0.111241 -0.086170 -0.014364 0.074175 -0.098857 0.009220 0.108878 -0.101769 -0.003542 0.088031 -0.093642 -0.008525 0.092945 -0.099108 -0.010527 0.096550 -0.113563 0.009649 0.098277 -0.084881 -0.014450 0.084303 -0.100045 0.017505 0.101830 -0.100532 -0.001949 0.092094 -0.096442 0.005077 0.104505 -0.097254 0.015303 0.101971 -0.081135 0.014365 0.090062 -0.082301 0.003077 0.102458 -0.094643 0.013513 0.110810 -0.092457 0.001424 0.100655 -0.092619 -0.000817 0.105737 -0.092597 -0.003298 0.092412 -0.103545 0.010959 0.110838 -0.098505 -0.003035 0.108448 -0.101312 -0.002544 0.087508 -0.094961 0.001058 0.092784 -0.088776 -0.009080 0.087546 -0.103525 -0.005294 0.105560 -0.111587 -0.007665 0.092067 -0.107421 -0.010392 0.077748 -0.102377 -0.011873 0.089399 -0.094091 -0.001757 0.100339 -0.089962 0.016084 0.097961 -0.095036 -0.008847 0.102998 -0.089959 -0.001015 0.105426 -0.100552 0.013252 0.099321 -0.092044 0.004792 0.105073 -0.092646 0.005921 0.100284 -0.072334 0.014046 0.119684 -0.079873 0.003159 0.103625 -0.085512 0.005472 0.083724 -0.108234 -0.000890 0.094599 -0.102669 -0.015268 0.081264 -0.102287 0.010855 0.108432 -0.107721 0.026194 0.106262 -0.081039 0.005036 0.106900 -0.085299 0.015272 0.092296 -0.095554 0.008851 0.083491 -0.083504 0.013868 0.117773 -0.099306 0.005579 0.106227 -0.083233 0.004338 0.094815 -0.101802 0.001525 0.101137 -0.098085 0.004640 0.090545 -0.093006 -0.007096 0.089663 -0.099324 0.008152 0.105812 -0.092097 0.016963 0.102072 -0.098984 0.003733 0.092816 -0.087099 -0.004090 0.115880 -0.092557 -0.004949 0.080030 -0.086347 -0.003367 0.102357 -0.104268 0.006922 0.101683 -0.072252 0.016544 0.112971 -0.086676 0.012793 0.095449 -0.079475 -0.000425 0.113807 -0.098735 -0.001660 0.091822 -0.098894 0.009205 0.111599 -0.097591 0.004862 0.106739 -0.091076 0.001729 0.076870 -0.108272 -0.000914 0.090944 -0.100726 -0.001414 0.099332 -0.088242 -0.002604 0.100101 -0.098561 0.006447 0.102977 -0.098063 0.011866 0.099085 -0.082930 0.002013 0.101657 -0.118279 0.011835 0.104070 -0.089535 -0.006183 0.083845 -0.103808 0.001389 0.104479 -0.074639 0.007553 0.095330 -0.080460 0.003952 0.113003 -0.107696 0.010742 0.112867 -0.092482 0.003775 0.094728 -0.083711 -0.008346 0.101072 -0.105331 0.005439 0.107054 -0.082973 -0.003673 0.095189 -0.109923 -0.012707 0.089085 -0.110013 0.012553 0.107752 -0.076885 0.010381 0.098602 -0.086752 0.003092 0.097972 -0.099931 0.017096 0.119484 -0.083100 -0.000808 0.095198 -0.122613 -0.004038 0.101204 -0.086123 -0.004398 0.095763 -0.108993 0.013223 0.105798 -0.089802 -0.010687 0.094160 -0.116905 -0.006135 0.101195 -0.106924 0.016354 0.102085 -0.076786 -0.001092 0.095653 -0.090356 -0.006335 0.100061 -0.106575 0.021244 0.101836 -0.083946 0.002663 0.096633 -0.089196 -0.010702 0.093459 -0.111719 -0.000194 0.093986 -0.095999 0.005658 0.108343 -0.088872 0.013363 0.107205 -0.089080 0.001394 0.099294 -0.106918 0.022730 0.100488 -0.086337 0.013016 0.112772 -0.076480 0.011092 0.112638 -0.092224 -0.021291 0.089743 -0.100640 -0.003023 0.102150 -0.099008 0.006795 0.102011 -0.093803 0.015045 0.105888 -0.074012 0.008164 0.110468 -0.099414 -0.000132 0.104130 -0.092148 -0.002279 0.076242 -0.090175 0.002572 0.088784 -0.107857 0.006574 0.118858 -0.095321 -0.001184 0.096768 -0.099509 -0.006922 0.088072 -0.087268 0.012161 0.105927 -0.109657 0.010969 0.094904 -0.097806 0.015005 0.090949 -0.071095 -0.007226 0.105338 -0.106324 0.014759 0.113327 -0.083347 -0.003619 0.084370 -0.087602 -0.008861 0.101710 -0.110783 -0.005170 0.087231 -0.096666 -0.019432 0.103296 -0.105292 0.124909 -0.002885 0.089837 0.109731 0.339468 -0.513021 0.211864 -0.440734 0.249494 -0.426937 -0.002452 0.084863 -0.093499 0.006221 0.096647 -0.090103 -0.010436 0.092773 -0.099292 -0.002289 0.084905 -0.088870 0.012865 0.105482 -0.091714 0.005468 0.101619 -0.093631 -0.001999 0.080656 -0.084916 -0.001476 0.096105 -0.092373 0.013859 0.096555 -0.081145 0.017346 0.092528 -0.076704 0.006526 0.093677 -0.095028 -0.006642 0.091110 -0.081953 -0.005156 0.093947 -0.087207 0.006200 0.105754 -0.076590 -0.016819 0.083822 -0.088239 0.004677 0.100082 -0.088424 -0.004036 0.092549 -0.091663 -0.009753 0.092702 -0.100502 0.005259 0.093381 -0.087665 0.003752 0.091545 -0.094720 0.006697 0.085462 -0.085108 -0.003361 0.099737 -0.090524 -0.010369 0.081945 -0.094161 0.003113 0.094398 -0.083545 0.008133 0.097023 -0.084964 0.011206 0.097745 -0.064716 0.015023 0.098759 -0.081241 -0.009059 0.089551 -0.104670 0.000432 0.092474 -0.089169 -0.006799 0.089134 -0.096515 0.005771 0.091924 -0.090759 -0.006904 0.098389 -0.093971 -0.019014 0.083525 -0.098003 0.016253 0.103880 -0.083989 -0.002753 0.089126 -0.094013 -0.000640 0.084799 -0.095402 0.019196 0.094042 -0.072799 0.011768 0.087266 -0.087301 -0.008315 0.085274 -0.087717 -0.009297 0.095663 -0.103703 -0.004516 0.095367 -0.085647 -0.003240 0.081789 -0.088439 0.009900 0.095851 -0.087533 0.007410 0.093597 -0.092224 -0.005788 0.090410 -0.083654 0.009940 0.102017 -0.091624 0.007470 0.091848 -0.084958 -0.012782 0.086905 -0.092754 -0.018672 0.087928 -0.099303 0.001268 0.088923 -0.088707 0.005785 0.107160 -0.082793 0.010540 0.090400 -0.068326 -0.001598 0.083728 -0.087209 -0.016093 0.078043 -0.096398 -0.012102 0.090285 -0.093556 0.010669 0.095702 -0.076852 -0.004657 0.087808 -0.092604 -0.002822 0.086010 -0.090709 -0.020326 0.086336 -0.110482 -0.007754 0.077966 -0.101572 0.004300 0.101248 -0.083242 0.010404 0.096979 -0.089348 -0.003417 0.078199 -0.102714 0.008442 0.088436 -0.089074 0.003142 0.090016 -0.081319 0.002886 0.089361 -0.083473 -0.001208 0.103389 -0.090328 0.005812 0.099365 -0.090093 0.002165 0.098505 -0.080162 -0.008173 0.087619 -0.096494 0.001698 0.086306 -0.084381 0.020577 0.093979 -0.079013 0.012487 0.095544 -0.087654 -0.008221 0.079914 -0.089411 0.010797 0.101899 -0.091034 0.014458 0.094351 -0.075849 -0.001004 0.105820 -0.087878 -0.002623 0.088173 -0.092716 -0.009278 0.089058 -0.102043 0.012377 0.106141 -0.079535 0.003756 0.093120 -0.080510 -0.004143 0.090884 -0.098981 -0.007560 0.085617 -0.090976 -0.009162 0.081229 -0.088984 0.013303 0.105999 -0.087183 0.009450 0.097552 -0.091983 -0.013942 0.074661 -0.089852 -0.000773 0.091885 -0.099826 0.008653 0.083396 -0.087279 -0.001937 0.094348 -0.085875 0.011813 0.086033 -0.084051 0.010710 0.094653 -0.077464 -0.004570 0.091650 -0.100312 0.012480 0.095726 -0.077895 -0.007316 0.095412 -0.100775 0.020882 0.112289 -0.069527 0.001611 0.091081 -0.081442 -0.011703 0.095353 -0.088784 0.005456 0.085606 -0.092024 -0.009812 0.091555 -0.099307 0.010848 0.089421 -0.079038 -0.001895 0.091218 -0.101218 0.008321 0.092595 -0.080782 0.012940 0.099539 -0.076333 -0.011325 0.080190 -0.085658 0.004108 0.089472 -0.085676 0.002050 0.095268 -0.092003 -0.009270 0.085740 -0.090548 -0.013576 0.083561 -0.102233 0.005831 0.090014 -0.082434 0.011718 0.101902 -0.079730 -0.010860 0.080895 -0.098343 -0.004662 0.085983 -0.096512 -0.014434 0.087107 -0.107439 -0.005907 0.083208 -0.098331 0.015350 0.100485 -0.077420 0.010230 0.104299 -0.075871 0.009601 0.096529 -0.088754 0.009588 0.089608 -0.093474 -0.005543 0.099413 -0.092681 -0.007658 0.085139 -0.094580 0.002856 0.093307 -0.081044 -0.006373 0.093238 -0.082145 0.016630 0.110445 -0.086077 0.007983 0.104443 -0.085437 0.017821 0.096232 -0.075960 -0.002998 0.094889 -0.083944 0.018088 0.104312 -0.083288 -0.014796 0.091456 -0.096733 0.014918 0.111788 -0.086114 0.016070 0.094478 -0.076329 0.011508 0.110340 -0.084647 0.006449 0.080645 -0.092625 0.004606 0.087358 -0.087746 -0.000106 0.099015 -0.084955 0.008628 0.077790 -0.077267 0.009723 0.100699 -0.079657 -0.015359 0.084233 -0.096805 -0.001072 0.083026 -0.089650 -0.004036 0.090170 -0.085772 0.012975 0.100821 -0.078524 0.003494 0.086853 -0.086811 -0.007431 0.079655 -0.079909 0.020471 0.103122 -0.079492 -0.006386 0.072749 -0.090430 0.006020 0.102611 -0.089783 0.017883 0.105145 -0.079718 -0.020333 0.088613 -0.079847 0.009257 0.093906 -0.085008 0.017351 0.098227 -0.079535 0.018315 0.114028 -0.078910 0.009008 0.085367 -0.083902 0.011715 0.106986 -0.084938 0.006845 0.096070 -0.094184 -0.000568 0.081113 -0.090156 0.010530 0.098233 -0.076894 0.021577 0.092203 -0.081187 0.000862 0.089231 -0.071213 -0.007603 0.077239 -0.111596 0.004024 0.094881 -0.093948 0.002338 0.087639 -0.079837 0.014468 0.101222 -0.088656 0.005200 0.090786 -0.088044 -0.015946 0.085097 -0.087495 0.011163 0.094497 -0.089156 -0.005835 0.089999 -0.101366 0.007421 0.102424 -0.083985 0.015185 0.088659 -0.082137 0.006098 0.093448 -0.078975 0.020085 0.102093 -0.075171 0.138090 0.011903 0.104604 0.055327 0.293023 -0.463610 0.186120 -0.396958 0.252385 -0.430933 0.005390 -0.002048 -0.000741 -0.023660 0.001596 -0.006396 0.002994 -0.002001 0.002544 0.002970 0.003012 -0.005861 -0.004951 0.002341 -0.012277 0.009025 -0.001059 -0.004772 0.006628 -0.000268 -0.007178 -0.006043 -0.009614 -0.002785 -0.006564 -0.012588 0.000838 -0.013315 -0.004821 0.007151 -0.017186 0.000414 -0.014638 0.000573 -0.003451 0.002478 0.005124 -0.007396 -0.000354 -0.010256 -0.007149 0.001012 0.016021 -0.011153 -0.003961 -0.025506 0.001309 -0.007780 0.001949 -0.008930 -0.005516 0.007358 -0.007841 0.008511 0.003189 0.002367 0.001101 -0.012625 -0.011021 0.002964 -0.011484 -0.004078 -0.011139 0.005009 0.004520 0.003764 -0.024206 0.004399 -0.004120 0.006532 -0.006630 0.003456 -0.018541 -0.004526 -0.006902 -0.007499 -0.010872 0.005069 -0.020634 -0.001291 -0.001791 -0.006124 -0.000281 -0.007252 -0.004409 -0.007191 0.003063 0.008296 -0.002125 -0.007569 0.005116 -0.006296 0.003165 0.008220 -0.005945 -0.004337 -0.008701 0.004697 -0.009652 -0.025256 -0.010185 0.003414 -0.002976 -0.001773 0.000739 -0.013642 0.008314 -0.019096 -0.000387 -0.002513 -0.002676 0.009295 0.002367 -0.009501 0.009864 -0.006320 -0.013125 0.001455 -0.003518 -0.004372 0.016211 -0.015862 0.000681 -0.013155 -0.011015 0.000008 -0.006169 -0.004570 0.003589 0.007616 -0.000905 -0.008178 -0.000166 -0.005769 -0.012302 -0.005002 -0.002499 -0.013108 -0.003984 -0.006923 -0.001499 -0.017445 -0.003189 -0.012212 -0.018499 -0.000230 -0.007393 -0.000172 0.007974 0.000084 0.001223 -0.004596 0.008487 0.010609 -0.001488 -0.009739 -0.021262 0.004028 -0.009103 0.008582 -0.006169 0.006357 -0.014516 -0.003269 -0.001401 -0.016330 -0.010307 -0.009563 -0.000238 0.006170 -0.000410 0.004888 -0.001305 0.004213 0.002279 -0.004581 -0.004093 -0.021568 -0.005808 -0.003254 -0.001023 -0.013154 -0.007294 0.014990 -0.007886 -0.016698 -0.014963 -0.004016 0.004950 -0.016586 -0.003153 0.005893 -0.027197 0.006740 -0.005226 0.004595 0.009244 -0.002525 0.002686 0.017517 0.001404 -0.019143 -0.000355 0.004175 -0.021810 0.001082 0.000654 -0.029254 0.005233 -0.000070 -0.020961 -0.006868 0.007053 -0.019739 -0.007658 0.003943 -0.014338 -0.005385 0.002495 0.000714 -0.005825 0.006371 -0.005240 0.005423 -0.013492 -0.019639 -0.000956 0.006312 -0.018846 -0.000282 0.004082 0.011512 -0.010564 0.002205 -0.016938 -0.012367 0.007360 -0.011728 -0.005352 0.007288 -0.002540 -0.013894 0.002882 -0.002329 -0.003110 -0.000184 -0.000655 0.003161 0.003059 0.000074 0.003701 -0.008088 -0.001280 -0.010572 0.006134 0.002657 -0.005986 -0.006179 -0.011885 -0.004981 0.001750 0.003542 -0.011777 0.011359 -0.017674 -0.013990 -0.001902 0.001039 -0.010759 0.003409 0.000535 -0.009204 0.001079 0.000799 0.003680 -0.003164 -0.022161 0.001487 -0.005842 -0.018256 0.005899 -0.012037 0.010571 -0.001331 -0.003089 0.000956 0.006659 -0.008855 -0.014463 0.013315 -0.009272 -0.005934 0.007518 0.000334 -0.021397 -0.000347 -0.001146 -0.027713 0.003387 -0.010547 -0.004152 -0.008106 -0.004059 -0.012791 -0.008076 -0.003963 -0.015884 0.000576 -0.000356 0.001366 -0.001258 -0.003799 -0.005902 -0.009571 -0.011754 -0.014294 0.006174 -0.008237 0.006072 -0.006405 -0.003470 0.003261 -0.015430 0.007171 -0.025586 0.014007 -0.003933 -0.002138 0.006869 0.003609 0.012818 -0.002650 -0.016998 0.004402 0.000173 -0.002328 0.006897 -0.005924 0.003355 0.002484 -0.007825 -0.008958 -0.001278 -0.017397 0.004731 -0.015957 -0.001983 0.007675 -0.017843 -0.002318 -0.014313 -0.000738 -0.001028 -0.003474 0.003980 0.006534 -0.005959 0.005861 -0.001184 -0.004219 -0.007556 -0.001448 -0.003981 -0.022614 -0.007566 0.004022 -0.017685 0.001560 -0.012292 0.005796 -0.008469 -0.001428 -0.002080 -0.014426 -0.003576 0.010191 -0.004671 0.003674 -0.017241 -0.007716 0.010489 -0.007833 -0.004394 -0.005960 -0.014295 -0.005294 -0.014080 0.002711 0.000019 -0.006803 0.012669 0.003595 -0.007756 -0.019523 -0.006634 0.008100 -0.006076 -0.014508 -0.008592 -0.009986 -0.003856 0.003535 0.017064 -0.012905 -0.008522 -0.006103 -0.004586 -0.005836 -0.015140 0.003191 -0.001384 0.003329 0.014610 -0.009299 -0.022328 -0.003018 -0.004364 0.001348 0.004863 -0.013990 -0.009578 0.004317 -0.003482 -0.012607 -0.007130 -0.001668 0.006759 0.000520 -0.000795 0.002392 0.000711 0.000869 -0.012154 0.010117 -0.018939 0.004297 -0.000705 0.009071 -0.018104 -0.007128 0.001469 -0.004538 0.003533 -0.022981 -0.016025 -0.003077 0.005270 -0.022192 -0.002078 -0.001001 0.005920 0.003935 -0.010215 0.010248 -0.004804 -0.008743 0.010500 -0.009775 0.004793 -0.012938 0.017821 -0.004865 -0.011573 -0.000320 -0.001334 -0.004714 0.009715 -0.001670 -0.028818 0.011159 -0.002630 -0.019318 -0.000488 0.006504 -0.005946 -0.005407 -0.007382 -0.018302 -0.003425 0.000544 -0.012263 -0.006230 -0.003753 -0.006570 0.000208 -0.004081 -0.018040 0.004578 0.000112 -0.023206 0.003136 -0.006377 0.004050 -0.000728 -0.007733 0.011115 -0.011315 0.001400 -0.025817 -0.003162 0.008705 -0.015227 0.003622 0.002743 -0.016912 -0.000501 -0.007217 -0.015661 0.004390 -0.000154 0.016210 -0.007314 0.015223 0.005175 -0.003199 -0.002750 -0.021629 -0.013031 -0.008240 -0.002732 0.011866 -0.098129 0.105200 0.000944 -0.105839 0.093900 -0.012505 -0.113643 0.092792 0.000070 -0.102401 0.102893 -0.001337 -0.100106 0.110779 -0.012650 -0.114830 0.101046 0.004427 -0.098065 0.110969 -0.004863 -0.115566 0.107169 0.003725 -0.098960 0.101440 0.004990 -0.093498 0.107867 0.007362 -0.101889 0.109151 -0.002775 -0.110592 0.098779 -0.010341 -0.117417 0.103237 0.002655 -0.101856 0.101535 -0.002055 -0.104132 0.100173 0.001126 -0.103173 0.107991 -0.007370 -0.107370 0.099005 -0.005788 -0.107366 0.098942 0.001564 -0.098211 0.106855 0.001199 -0.103416 0.112201 -0.000936 -0.096104 0.102126 -0.001544 -0.107458 0.098178 -0.005624 -0.114078 0.101162 -0.011004 -0.113103 0.095667 -0.006295 -0.108290 0.101860 -0.013926 -0.121910 0.099717 -0.013697 -0.114505 0.090963 -0.006585 -0.106961 0.105391 -0.000910 -0.106410 0.107825 0.001366 -0.116719 0.095715 0.006186 -0.106303 0.113970 -0.001876 -0.106585 0.092634 -0.003246 -0.111163 0.102755 0.001067 -0.109489 0.103033 0.007838 -0.099379 0.106155 -0.005608 -0.104086 0.102543 -0.007040 -0.105664 0.098727 0.009556 -0.107244 0.108861 -0.001517 -0.112974 0.102930 0.004809 -0.100865 0.105740 0.005586 -0.106840 0.105152 0.002668 -0.103377 0.102711 0.001960 -0.099052 0.102359 -0.000216 -0.101654 0.105664 -0.007931 -0.108861 0.098677 -0.000441 -0.110697 0.100497 -0.004885 -0.111991 0.099661 -0.004165 -0.100947 0.092534 0.004431 -0.103262 0.121463 -0.004935 -0.107247 0.100688 -0.013186 -0.115568 0.096752 -0.007579 -0.103836 0.098714 -0.004576 -0.110548 0.098217 -0.002195 -0.116996 0.107264 -0.000873 -0.104101 0.101734 -0.009747 -0.110979 0.108024 -0.008871 -0.107873 0.088763 -0.000937 -0.113504 0.100362 -0.002739 -0.094181 0.094362 0.004865 -0.102105 0.103423 0.002975 -0.106594 0.110327 0.005624 -0.106852 0.105697 0.001322 -0.097611 0.111482 -0.002382 -0.106976 0.095111 -0.003499 -0.102873 0.099787 -0.003269 -0.109650 0.095683 0.001791 -0.103671 0.116481 -0.006144 -0.115741 0.101919 0.002508 -0.111637 0.104486 -0.000879 -0.114398 0.095494 0.000727 -0.105890 0.104149 -0.001654 -0.101072 0.100172 -0.003043 -0.104104 0.104264 0.005977 -0.097749 0.112395 -0.015794 -0.110239 0.090429 0.004976 -0.107587 0.109590 -0.001811 -0.110703 0.105007 -0.010853 -0.110636 0.099558 -0.007423 -0.107948 0.103881 0.007891 -0.105071 0.103395 -0.005550 -0.122255 0.102465 -0.004872 -0.110309 0.102601 0.003508 -0.102861 0.102466 0.007967 -0.100134 0.109050 -0.003519 -0.107958 0.100887 -0.007223 -0.110818 0.092572 0.000450 -0.107666 0.110656 0.000657 -0.104639 0.098814 -0.009817 -0.112803 0.102214 -0.018271 -0.107923 0.095210 -0.010117 -0.109777 0.099245 0.004157 -0.119321 0.098123 -0.001259 -0.098067 0.102680 -0.013112 -0.113168 0.092963 -0.010790 -0.113243 0.101237 -0.012780 -0.109376 0.099914 -0.008225 -0.113624 0.099929 -0.009594 -0.111855 0.097494 -0.004230 -0.109263 0.093648 0.000121 -0.099655 0.102750 -0.001279 -0.110073 0.092744 0.005482 -0.110554 0.096713 -0.008971 -0.115807 0.102521 -0.017584 -0.104669 0.091557 -0.006696 -0.103430 0.103857 -0.010905 -0.115329 0.089545 -0.005784 -0.106109 0.108815 -0.007091 -0.118847 0.099985 -0.010316 -0.115493 0.093178 0.001204 -0.105050 0.106415 0.002239 -0.105197 0.106632 -0.001551 -0.107085 0.102214 -0.009043 -0.114519 0.090958 -0.007175 -0.113648 0.098351 0.006448 -0.103963 0.103823 -0.004478 -0.097590 0.107838 -0.013160 -0.112394 0.101224 -0.005914 -0.116671 0.094225 -0.016877 -0.128429 0.097384 -0.001782 -0.103075 0.100013 0.000073 -0.109224 0.098055 -0.000429 -0.103516 0.115526 -0.003572 -0.107527 0.102279 0.003846 -0.108310 0.110917 0.003979 -0.109996 0.111340 -0.007437 -0.108167 0.094079 0.005327 -0.105987 0.108135 0.000377 -0.107301 0.093990 -0.006526 -0.111952 0.093053 0.000340 -0.098875 0.111277 0.001201 -0.112741 0.107213 -0.005209 -0.112513 0.101184 0.001451 -0.106291 0.103835 -0.006253 -0.115883 0.092875 -0.008624 -0.109673 0.105483 -0.007100 -0.102845 0.097596 -0.007452 -0.110100 0.097781 0.007388 -0.102274 0.116152 -0.004106 -0.111873 0.088990 -0.004495 -0.114131 0.097092 0.004122 -0.111268 0.103594 -0.007256 -0.113551 0.097574 -0.001366 -0.103655 0.103328 -0.010042 -0.105469 0.090015 0.006183 -0.107318 0.108037 -0.004866 -0.112421 0.101331 -0.005614 -0.114764 0.093456 -0.005234 -0.107597 0.097328 -0.004845 -0.112340 0.103641 -0.005565 -0.103478 0.099688 -0.004457 -0.112005 0.093343 0.002211 -0.097762 0.103877 0.001324 -0.097923 0.103867 0.001254 -0.106873 0.110630 -0.008071 -0.113713 0.097133 -0.000367 -0.101662 0.110838 -0.007428 -0.115307 0.105532 -0.001789 -0.106907 0.101369 0.002317 -0.097780 0.111185 0.005366 -0.108092 0.098896 0.001259 -0.110350 0.101174 0.002581 -0.103029 0.103083 -0.002317 -0.111229 0.100866 -0.004152 -0.106171 0.106484 0.003325 -0.101077 0.103023 0.000235 -0.102874 0.096464 -0.000300 -0.106597 0.103140 0.000792 -0.098612 0.100652 -0.009431 -0.117046 0.090039 -0.008833 -0.101389 0.113265 -0.218754 0.036409 -0.119316 -0.094613 -0.320522 0.546199 -0.194328 0.445266 -0.275470 0.555823 -0.004928 -0.000981 0.000867 -0.000077 0.000587 -0.003478 -0.007986 -0.009502 0.005503 0.022124 0.005882 -0.019616 0.014846 0.001896 -0.021268 0.021905 0.008559 0.015259 -0.028613 -0.005003 -0.002473 -0.018850 -0.001674 -0.008891 0.004471 -0.008261 -0.006080 0.019636 0.006529 0.000997 -0.018995 -0.009104 0.015658 -0.001437 -0.002332 -0.022117 -0.013743 -0.006274 0.006818 -0.001606 -0.001861 0.003749 0.000192 0.000468 0.014864 -0.019857 -0.003064 0.013538 -0.007140 -0.001003 0.007612 -0.002006 -0.002558 0.006266 0.005371 -0.010072 0.004533 -0.010193 0.000264 -0.002096 0.014584 -0.008783 0.005297 0.010485 -0.009381 -0.005761 0.009951 0.000187 0.011878 0.017502 0.006619 0.020883 0.022472 -0.002677 -0.009562 -0.024303 -0.003954 0.003016 0.010368 -0.000749 0.010053 0.020321 0.005686 0.000925 -0.005727 -0.006257 0.010938 -0.015350 -0.001338 0.015778 0.023833 -0.003052 0.012643 0.018107 -0.009833 -0.006873 0.005133 0.008040 -0.016701 -0.014644 0.008728 0.010520 -0.016143 0.004222 -0.001671 -0.017102 0.002487 0.013751 -0.024914 -0.007579 0.014343 -0.003119 0.003892 -0.020006 -0.026716 0.004782 -0.003055 -0.002729 -0.006269 0.011330 0.002000 -0.007504 0.008944 -0.001161 -0.004244 0.014278 0.006111 0.002896 -0.021042 0.011102 -0.005858 -0.014023 0.003987 -0.006676 0.010769 0.010816 0.000171 0.014710 -0.005558 -0.001876 0.012810 -0.004584 -0.009693 -0.012822 0.004292 -0.003237 -0.007448 0.005604 -0.014727 -0.010468 -0.031606 -0.001530 0.002321 0.000414 -0.001432 0.002382 0.000537 0.000124 -0.010532 0.021262 -0.004729 0.006079 0.024029 -0.001007 -0.011956 -0.011835 -0.012679 -0.015953 -0.001660 0.006783 -0.007168 -0.006494 -0.000606 -0.015828 -0.018308 -0.006977 -0.005340 0.003509 0.006999 -0.023898 0.010007 -0.010314 0.007174 -0.023909 -0.006963 -0.023546 0.020106 -0.005108 0.012233 0.020120 -0.001356 0.014651 0.021981 -0.009555 -0.019081 0.017492 -0.004945 0.011657 -0.020594 -0.003338 -0.018126 -0.000387 -0.008016 -0.014468 0.000787 -0.001758 -0.004725 -0.018354 0.004538 0.015497 0.012808 -0.010564 -0.020058 -0.023210 -0.001750 -0.004640 -0.000554 0.001585 0.009567 0.009749 0.000480 -0.010305 -0.007202 -0.006738 -0.019533 -0.008170 -0.009708 0.014508 0.015717 -0.001467 -0.018674 -0.012657 0.000615 0.015633 0.018826 0.001634 0.006715 -0.011386 -0.009068 -0.016950 -0.013704 -0.000166 -0.004319 0.014095 0.008045 -0.020189 0.007411 -0.005310 0.008389 -0.030634 -0.004666 0.009999 -0.011019 -0.004696 0.012959 -0.022361 -0.009087 -0.005025 0.010299 -0.009410 0.011482 -0.031732 0.009112 -0.018786 -0.003167 -0.008635 -0.019098 0.024306 0.002237 -0.019429 -0.028253 -0.002968 0.011315 0.011019 -0.001276 -0.000797 -0.024250 0.004145 -0.006960 -0.025839 -0.012360 -0.009344 -0.021632 -0.003134 0.021509 -0.003169 -0.006396 0.015572 0.021898 -0.000533 -0.005166 -0.000979 -0.003996 0.000133 0.004198 0.008955 0.007221 0.001140 -0.002566 0.014660 0.006895 0.000804 0.013008 0.001321 -0.002058 0.002013 -0.019544 0.005520 -0.007616 0.001974 0.001524 -0.016130 -0.028176 0.007354 -0.022274 -0.014612 0.004488 0.001630 0.023345 -0.012693 0.003793 -0.014579 0.003633 0.013642 0.015285 -0.011308 -0.010657 0.015698 0.001681 -0.021768 0.012584 0.008348 -0.013586 -0.013308 -0.008998 -0.020262 -0.017289 -0.004853 -0.003243 0.012653 0.008059 -0.001208 0.011808 0.005357 0.000798 -0.016622 0.003687 -0.000041 -0.025990 -0.005650 -0.013859 0.005307 -0.007293 0.006221 -0.006491 -0.002080 0.005091 0.013606 0.001219 0.000130 -0.006394 -0.004364 0.006343 -0.010019 0.007997 0.010608 -0.030089 -0.000452 -0.007923 0.004436 0.009647 -0.002549 -0.017878 -0.004978 -0.013625 0.010837 0.005064 -0.003016 -0.026115 -0.002976 0.020426 -0.005749 0.002420 -0.019280 0.002761 0.005808 -0.002090 -0.008472 0.000494 -0.022898 -0.004424 -0.005865 0.018341 -0.008592 0.007751 -0.011783 -0.017104 0.002735 0.003498 -0.030271 -0.006334 -0.008525 0.011276 0.003694 -0.015140 -0.031278 0.006659 -0.010098 0.008968 -0.005693 -0.003325 0.002793 0.004496 -0.013271 -0.025337 -0.005605 0.011076 -0.018417 -0.011356 -0.012792 0.020866 -0.014326 0.002062 0.019087 0.005200 0.016093 -0.013621 0.007085 -0.021962 0.009687 0.002835 0.010507 0.013846 0.007000 0.011870 -0.028502 -0.000198 -0.022563 0.004706 -0.003763 -0.013171 -0.004923 -0.000236 -0.016394 -0.029538 0.010043 0.001627 0.023113 0.001540 0.009827 -0.028448 -0.001846 0.017952 -0.005193 -0.006464 0.000421 -0.026102 -0.005898 -0.011894 0.001596 -0.003545 0.003659 -0.019384 -0.005810 -0.013398 -0.002717 0.001099 -0.006590 -0.031187 -0.001698 0.018289 -0.019837 -0.000892 0.002494 -0.020348 -0.008113 0.007819 -0.018340 -0.000690 0.016943 0.007334 0.001994 0.013978 -0.017598 0.000974 0.014698 -0.024704 0.000700 -0.013126 -0.028569 -0.005314 -0.000771 -0.024232 0.002254 -0.006842 -0.010510 -0.008653 0.006400 -0.020143 0.006282 -0.004916 -0.024424 0.004925 0.013484 -0.029715 -0.003341 -0.013466 -0.025796 -0.000177 -0.013520 0.020874 -0.027536 -0.035196 -0.003189 -0.004159 0.001046 -0.023495 0.015469 -0.008221 0.001076 0.018202 0.058484 -0.053641 -0.004067 0.063706 -0.062667 -0.006279 0.055936 -0.056999 -0.005233 0.064359 -0.062304 -0.007862 0.068733 -0.059449 -0.004278 0.066449 -0.074876 0.002230 0.063720 -0.058273 0.016113 0.063002 -0.054041 0.007847 0.071182 -0.073665 -0.001166 0.070028 -0.075908 0.009952 0.071168 -0.048365 0.003733 0.055774 -0.056420 0.010016 0.070206 -0.051031 0.007707 0.050935 -0.061896 0.000927 0.068292 -0.057231 0.000199 0.062304 -0.074648 0.011656 0.052337 -0.064504 -0.001499 0.072335 -0.052701 0.011101 0.067888 -0.056764 0.015449 0.057749 -0.055903 -0.003644 0.069226 -0.064142 -0.006401 0.064293 -0.070135 0.004604 0.061831 -0.076082 -0.014544 0.065459 -0.063575 -0.003072 0.054575 -0.061819 0.005249 0.060018 -0.084967 0.004513 0.058308 -0.055509 -0.000904 0.061805 -0.056439 0.005843 0.077363 -0.056995 0.000351 0.051364 -0.061901 -0.003448 0.074500 -0.058063 -0.008656 0.056447 -0.068501 -0.002959 0.065845 -0.054280 -0.014151 0.056880 -0.062628 -0.006688 0.049972 -0.071584 -0.010601 0.058469 -0.060475 -0.000150 0.065063 -0.052385 0.013355 0.073856 -0.076288 0.008174 0.075749 -0.063674 -0.002583 0.061511 -0.060633 0.000667 0.053600 -0.080249 0.016091 0.079842 -0.056460 -0.004557 0.065585 -0.059447 0.005090 0.065205 -0.069643 -0.002666 0.065684 -0.059118 0.005422 0.057204 -0.063184 -0.004284 0.062129 -0.051902 0.020721 0.067489 -0.051939 0.005170 0.070902 -0.068713 -0.004632 0.068614 -0.054929 -0.006493 0.061480 -0.061024 0.013163 0.073277 -0.058823 0.009604 0.070717 -0.053091 0.005731 0.084411 -0.079735 -0.005838 0.056230 -0.051754 0.004154 0.049984 -0.057193 0.011006 0.073244 -0.060793 0.010553 0.060700 -0.058216 -0.010705 0.069946 -0.063772 0.008919 0.081302 -0.046086 0.002962 0.062081 -0.073513 0.001047 0.059179 -0.075822 -0.001949 0.067966 -0.049090 -0.008679 0.063049 -0.066875 0.000225 0.073516 -0.080961 0.015226 0.071446 -0.056297 0.008607 0.066253 -0.057956 0.003454 0.060114 -0.065326 -0.008255 0.057624 -0.052605 0.003447 0.072171 -0.061089 0.016256 0.071484 -0.055900 0.006321 0.088487 -0.055718 0.005977 0.051830 -0.077001 0.001459 0.063588 -0.051193 0.011453 0.058336 -0.061807 0.004475 0.060062 -0.071459 0.007372 0.070900 -0.075779 0.003569 0.071511 -0.061890 -0.002618 0.069657 -0.062365 0.008801 0.058541 -0.067808 -0.012398 0.062949 -0.077514 0.005776 0.062310 -0.054377 0.009640 0.077311 -0.054059 0.000863 0.060496 -0.057376 0.003913 0.065074 -0.071303 -0.010261 0.083317 -0.060963 0.005163 0.073084 -0.064873 0.003822 0.055161 -0.058442 -0.003176 0.060527 -0.073341 0.001544 0.078571 -0.060934 0.006915 0.082220 -0.055552 0.012592 0.065640 -0.062181 0.006720 0.064390 -0.069580 -0.010468 0.063605 -0.074591 -0.003042 0.082679 -0.063516 0.001565 0.068128 -0.060065 0.005815 0.070706 -0.059360 0.019748 0.064886 -0.051648 0.007863 0.074766 -0.054931 0.004124 0.061933 -0.056309 0.011692 0.080793 -0.060902 -0.003581 0.061456 -0.080682 0.014231 0.066422 -0.081912 -0.000563 0.060504 -0.055132 0.009732 0.086182 -0.052815 0.000067 0.067728 -0.057230 0.019175 0.068126 -0.047641 0.013037 0.076405 -0.043697 0.001355 0.063054 -0.073554 -0.006760 0.074928 -0.071762 0.001265 0.056642 -0.067440 0.002296 0.070743 -0.073180 -0.003230 0.058915 -0.067438 0.012036 0.062305 -0.056199 0.005360 0.072071 -0.051780 -0.016547 0.070535 -0.053842 0.007862 0.058240 -0.055180 0.011825 0.071241 -0.077777 0.009626 0.048815 -0.066038 0.020118 0.079390 -0.064242 -0.003357 0.067517 -0.070535 0.013982 0.064290 -0.058327 0.004546 0.075606 -0.067988 0.009577 0.075520 -0.047436 0.005387 0.060574 -0.062958 0.001135 0.054614 -0.072013 -0.001219 0.058296 -0.065072 -0.001195 0.064499 -0.079539 0.004537 0.077196 -0.057937 -0.013575 0.058964 -0.077647 -0.012213 0.045833 -0.064540 -0.005610 0.043016 -0.055789 0.001822 0.070017 -0.066739 -0.002449 0.068705 -0.073004 -0.008797 0.051232 -0.070273 -0.010445 0.083389 -0.059019 0.007212 0.069991 -0.041686 -0.001140 0.060391 -0.057236 -0.009912 0.058490 -0.057160 0.012688 0.047064 -0.069456 0.006014 0.079067 -0.078676 -0.002986 0.068895 -0.055799 0.023654 0.062119 -0.053310 0.005705 0.070381 -0.067168 -0.006528 0.058922 -0.071280 0.012342 0.065441 -0.059169 -0.006381 0.065729 -0.064852 -0.000059 0.062200 -0.057032 -0.019694 0.068680 -0.075591 0.009261 0.070767 -0.056907 0.003363 0.050403 -0.062615 -0.004482 0.058671 -0.065856 0.006526 0.068915 -0.062542 0.021093 0.079902 -0.048492 0.008139 0.087800 -0.065819 -0.009459 0.049593 -0.067295 -0.002303 0.061553 -0.065919 -0.017727 0.067852 -0.052422 0.008571 0.071565 -0.068203 0.016917 0.057792 -0.053820 0.001076 0.065869 -0.063524 -0.013467 0.046505 -0.063816 0.007016 0.081777 -0.047612 -0.004354 0.072093 -0.076824 0.002038 0.073305 -0.070876 0.009301 0.078225 -0.060559 0.018669 0.066975 -0.057830 0.006958 0.073558 -0.057713 -0.005461 0.059353 -0.051400 0.012237 0.059001 -0.059978 0.384262 0.003850 0.028282 0.029492 0.065505 -0.110979 0.037444 -0.096406 0.060349 -0.223751 -0.002680 -0.100933 0.101444 -0.000701 -0.092113 0.105342 0.004682 -0.099980 0.102990 0.006357 -0.102662 0.098691 -0.001588 -0.100934 0.091704 0.002432 -0.094441 0.103609 -0.005274 -0.106423 0.078840 -0.003518 -0.094821 0.097795 -0.008166 -0.101664 0.092715 -0.003957 -0.114547 0.098062 -0.005091 -0.102359 0.089310 -0.003009 -0.098950 0.090705 0.000077 -0.086688 0.102188 -0.009858 -0.107814 0.097555 -0.001019 -0.100042 0.096426 -0.005664 -0.116188 0.086976 -0.000135 -0.105341 0.108328 0.001336 -0.107558 0.098580 -0.007973 -0.109431 0.096187 -0.007283 -0.101839 0.083047 -0.003233 -0.107751 0.095967 -0.003554 -0.093447 0.092974 -0.005837 -0.097847 0.089233 0.004556 -0.101098 0.104781 0.000259 -0.098336 0.102724 0.006245 -0.090310 0.095666 -0.003232 -0.102810 0.103126 0.005171 -0.097908 0.093204 -0.001633 -0.098869 0.100240 -0.007544 -0.098723 0.106200 -0.007537 -0.106493 0.096019 0.001203 -0.102854 0.102147 -0.001092 -0.101563 0.098379 -0.005347 -0.096776 0.090504 -0.005041 -0.111557 0.094401 0.004459 -0.105473 0.102069 -0.000560 -0.098760 0.103947 -0.006771 -0.100059 0.091077 -0.002715 -0.092927 0.098399 -0.009695 -0.104835 0.090735 -0.005710 -0.100175 0.098696 -0.007803 -0.101644 0.098582 -0.009231 -0.103201 0.097930 -0.003830 -0.097990 0.094989 -0.005297 -0.107076 0.101736 0.002764 -0.091704 0.098846 -0.000053 -0.105691 0.094088 0.001473 -0.104670 0.097441 -0.007153 -0.098575 0.085936 -0.005205 -0.098396 0.099625 0.003147 -0.100544 0.104735 0.000200 -0.111071 0.104502 -0.003370 -0.100039 0.090348 -0.005063 -0.099421 0.094218 -0.002782 -0.105323 0.089257 0.005923 -0.101913 0.105072 -0.002004 -0.096814 0.100044 -0.001671 -0.106954 0.094839 -0.001512 -0.104248 0.101043 0.000420 -0.102059 0.100714 -0.000927 -0.096079 0.097644 -0.007549 -0.102662 0.095235 0.000682 -0.108987 0.095283 -0.006047 -0.101271 0.092664 -0.001494 -0.101683 0.102336 0.001384 -0.097338 0.101476 -0.004953 -0.102884 0.087888 0.002797 -0.088701 0.107705 -0.000354 -0.100380 0.093617 -0.001250 -0.096276 0.104123 0.001398 -0.099176 0.099360 -0.002898 -0.100049 0.099289 -0.006558 -0.105969 0.094170 -0.011415 -0.113834 0.087365 0.003670 -0.094798 0.103510 -0.010493 -0.107040 0.093083 -0.001728 -0.092976 0.094742 0.003364 -0.099853 0.092810 -0.002451 -0.099996 0.094310 -0.009692 -0.110625 0.095356 -0.006375 -0.095567 0.097468 -0.001837 -0.103171 0.099360 -0.008407 -0.102591 0.079950 -0.008821 -0.105223 0.098758 0.002626 -0.095455 0.103426 -0.002212 -0.099297 0.099738 -0.002195 -0.103314 0.088437 -0.002626 -0.095591 0.098314 0.003939 -0.094898 0.098175 0.004618 -0.097174 0.108737 -0.002441 -0.095503 0.093843 -0.009535 -0.099180 0.094596 -0.000323 -0.105952 0.086628 0.006410 -0.095123 0.103982 0.008257 -0.097222 0.102839 0.008188 -0.094114 0.101450 -0.003666 -0.094505 0.098435 0.001503 -0.099653 0.096457 0.005475 -0.102034 0.103709 -0.004089 -0.108416 0.096009 -0.002040 -0.098157 0.102418 -0.007322 -0.103341 0.090516 0.005825 -0.089619 0.100344 0.007010 -0.096043 0.104773 -0.004286 -0.108713 0.099467 0.005171 -0.090739 0.109156 0.003122 -0.095893 0.100093 -0.001797 -0.095332 0.103364 0.000505 -0.093927 0.100892 -0.012615 -0.101972 0.094726 -0.011279 -0.108247 0.087932 -0.003489 -0.096363 0.091024 0.001135 -0.100085 0.101311 -0.007582 -0.105888 0.094435 -0.007674 -0.106176 0.094597 -0.001414 -0.106564 0.087768 0.000572 -0.096079 0.095624 0.001110 -0.091901 0.101532 0.008429 -0.095354 0.105422 0.001427 -0.106005 0.103400 0.004645 -0.094131 0.107605 -0.004045 -0.100306 0.090155 -0.004863 -0.102128 0.091820 -0.003320 -0.105464 0.095265 -0.009937 -0.103963 0.087981 -0.002793 -0.102204 0.094395 -0.009250 -0.096416 0.090414 -0.004370 -0.102530 0.103525 0.004595 -0.093134 0.096465 -0.005751 -0.106102 0.090930 0.002883 -0.095614 0.090564 -0.002009 -0.097397 0.099129 -0.007425 -0.097087 0.100979 0.003611 -0.095913 0.100431 -0.004265 -0.103511 0.090043 0.003081 -0.109008 0.097355 0.001742 -0.091937 0.105841 -0.005499 -0.104813 0.089783 0.001936 -0.096269 0.095195 0.006002 -0.094075 0.098559 -0.001462 -0.096476 0.091578 0.002873 -0.100954 0.099274 -0.003372 -0.106074 0.092214 0.003454 -0.097149 0.106335 -0.009494 -0.102013 0.093650 0.005825 -0.088801 0.101493 -0.008208 -0.105053 0.089980 -0.001381 -0.098413 0.103675 0.001941 -0.101587 0.092053 0.002864 -0.100309 0.098311 0.006772 -0.094567 0.106390 -0.010884 -0.107489 0.094064 0.003328 -0.088379 0.092799 -0.006079 -0.103438 0.098394 0.005040 -0.091531 0.100994 -0.001624 -0.100466 0.098205 0.000109 -0.104150 0.093218 -0.001230 -0.105969 0.095891 -0.003692 -0.107587 0.097503 -0.006321 -0.105114 0.097393 -0.007727 -0.096425 0.088364 -0.000523 -0.099463 0.105296 0.002481 -0.094577 0.106882 -0.004620 -0.104251 0.089501 0.006716 -0.103387 0.102856 0.004559 -0.109274 0.105169 -0.002587 -0.107768 0.092020 -0.003402 -0.100935 0.099083 0.006227 -0.093431 0.103594 0.005990 -0.101700 0.097673 -0.198170 -0.012801 -0.132407 0.008720 -0.180998 0.322445 -0.118511 0.194396 -0.128752 0.291093 0.024265 0.136106 -0.097240 -0.000960 0.117655 -0.122699 -0.000405 0.125924 -0.106926 0.009462 0.124915 -0.109425 -0.005092 0.112076 -0.126867 0.007806 0.125453 -0.114671 0.015600 0.116007 -0.111761 -0.011413 0.126580 -0.103909 0.014664 0.121351 -0.116323 0.005188 0.110671 -0.111956 0.001326 0.117097 -0.131372 0.017828 0.119539 -0.114577 0.011403 0.130787 -0.105944 0.006051 0.128944 -0.100007 0.001535 0.118768 -0.110233 -0.011540 0.114171 -0.118972 0.013103 0.109156 -0.100040 0.014459 0.118286 -0.106557 -0.009239 0.101459 -0.117219 0.000369 0.110899 -0.111374 0.007164 0.112496 -0.120081 -0.007397 0.109871 -0.113434 0.008599 0.129074 -0.107748 -0.014392 0.110981 -0.119789 0.007046 0.118430 -0.123631 0.003222 0.115451 -0.106354 0.003515 0.114347 -0.110273 0.013409 0.110332 -0.110955 0.009540 0.131830 -0.095879 -0.012363 0.113244 -0.113147 0.004794 0.111103 -0.118048 0.029907 0.124927 -0.107144 0.008479 0.109829 -0.103382 -0.003155 0.122389 -0.117463 0.008054 0.121809 -0.105094 0.009477 0.118482 -0.107997 0.011144 0.123946 -0.116990 0.003636 0.120393 -0.118518 0.010610 0.121959 -0.093040 -0.000658 0.127930 -0.116676 0.005041 0.114450 -0.115945 0.013546 0.127348 -0.096008 0.004861 0.120665 -0.108967 0.012080 0.120875 -0.117506 0.005947 0.120779 -0.107538 0.007843 0.114009 -0.115298 0.022713 0.126042 -0.099890 0.007959 0.114284 -0.111845 -0.001457 0.122987 -0.109370 0.004847 0.122900 -0.122843 -0.006598 0.116498 -0.122883 -0.007928 0.106953 -0.113662 0.000873 0.117468 -0.108414 0.002999 0.111358 -0.102872 -0.012296 0.114796 -0.121815 -0.001516 0.111326 -0.114144 0.024076 0.121096 -0.095855 -0.002027 0.115180 -0.101943 0.008107 0.111143 -0.115045 0.004795 0.114815 -0.114437 0.012007 0.124786 -0.107137 0.001075 0.129103 -0.111580 0.015102 0.112687 -0.127924 0.004000 0.116749 -0.097971 -0.008705 0.103745 -0.107343 0.017334 0.128782 -0.103766 0.003889 0.128156 -0.107834 0.002046 0.110050 -0.099797 0.023822 0.119543 -0.101842 0.012290 0.115274 -0.113856 -0.010636 0.119671 -0.110571 -0.003489 0.102629 -0.123475 0.005654 0.118618 -0.102666 0.008770 0.118827 -0.108443 0.013919 0.122331 -0.109644 0.002567 0.114212 -0.116085 -0.007043 0.123231 -0.114904 -0.006372 0.108452 -0.119643 0.021229 0.129109 -0.099085 0.000126 0.112757 -0.104445 -0.006548 0.108202 -0.125141 -0.004662 0.108389 -0.115823 0.018060 0.112909 -0.117727 0.013250 0.113320 -0.105865 0.009001 0.124168 -0.109321 -0.012709 0.101936 -0.120231 -0.000916 0.115884 -0.119281 -0.000528 0.107611 -0.125408 -0.007282 0.119531 -0.104703 0.012195 0.108114 -0.117119 -0.006157 0.110410 -0.115359 -0.009490 0.113082 -0.123697 0.003134 0.118635 -0.123109 0.026019 0.117181 -0.101987 0.011597 0.108525 -0.105012 -0.004790 0.129282 -0.113864 0.006842 0.113386 -0.100940 0.006928 0.126544 -0.116562 0.003042 0.110534 -0.108386 0.017754 0.131740 -0.093576 -0.000716 0.120566 -0.105622 0.009247 0.123113 -0.117741 -0.005643 0.122146 -0.114346 0.000564 0.111725 -0.104621 0.007287 0.120426 -0.111233 0.017312 0.111848 -0.117853 -0.011821 0.116286 -0.106662 -0.008738 0.115667 -0.119627 -0.000591 0.123450 -0.107550 -0.005275 0.113243 -0.113785 0.007265 0.124901 -0.092301 0.000327 0.124683 -0.110961 0.024764 0.127844 -0.090004 -0.021591 0.106705 -0.124543 0.004015 0.107882 -0.112838 0.002146 0.121201 -0.114886 -0.001622 0.112172 -0.114907 0.008384 0.121711 -0.112661 0.003626 0.121776 -0.105143 0.008180 0.117489 -0.105932 0.014454 0.136275 -0.103616 -0.005131 0.116676 -0.105539 0.006536 0.125670 -0.111919 0.005797 0.114072 -0.115478 0.015062 0.110072 -0.106404 -0.004212 0.117842 -0.115897 0.012763 0.109139 -0.102576 0.004387 0.107141 -0.111216 0.001956 0.109407 -0.119418 -0.005504 0.117229 -0.121512 -0.009210 0.098280 -0.128500 0.004420 0.111449 -0.123950 0.000425 0.120711 -0.113127 0.006843 0.109423 -0.110363 0.014697 0.129816 -0.105174 0.003544 0.103986 -0.111257 0.003958 0.126527 -0.100801 0.009524 0.116267 -0.119049 0.006427 0.126511 -0.115026 0.015680 0.120958 -0.094649 -0.006583 0.104726 -0.104340 0.002440 0.114974 -0.105808 -0.011525 0.108127 -0.113901 -0.014175 0.108615 -0.124095 0.001614 0.112413 -0.121811 0.002894 0.113956 -0.108538 0.018812 0.128108 -0.100180 -0.000162 0.117419 -0.117315 -0.001347 0.109491 -0.110355 0.003521 0.115648 -0.121436 -0.005090 0.119294 -0.115757 0.000925 0.118534 -0.113908 0.013999 0.134250 -0.114085 0.002450 0.125516 -0.120202 0.013308 0.122445 -0.105845 -0.002444 0.122776 -0.113132 -0.003579 0.118451 -0.103107 -0.004319 0.106153 -0.121006 -0.011107 0.111310 -0.119301 0.005841 0.106351 -0.117192 0.015297 0.121917 -0.102826 -0.004880 0.115863 -0.104835 0.004947 0.110468 -0.110962 0.000090 0.115971 -0.116384 0.016252 0.125107 -0.090286 0.018044 0.115224 -0.104472 0.000762 0.102023 -0.102147 -0.004403 0.111452 -0.121235 0.009801 0.109055 -0.111560 0.002502 0.113308 -0.119346 0.122819 0.012330 0.087459 0.052826 0.318143 -0.483429 0.171580 -0.423541 0.270777 -0.455839 0.014960 0.102559 -0.092522 -0.004102 0.095281 -0.100733 0.010582 0.102215 -0.102016 0.002934 0.101263 -0.090187 -0.003265 0.095053 -0.108029 -0.002543 0.098610 -0.106223 -0.011474 0.094863 -0.113820 -0.005863 0.104952 -0.114431 -0.000229 0.095996 -0.095681 -0.000239 0.108006 -0.097515 -0.008328 0.095559 -0.101087 0.000202 0.111467 -0.082842 0.011106 0.110597 -0.103701 -0.006606 0.102042 -0.105483 0.004780 0.100177 -0.099165 0.010695 0.111988 -0.095312 0.002504 0.103936 -0.101742 0.002243 0.110849 -0.097960 -0.011267 0.097856 -0.111446 0.003852 0.109056 -0.090780 0.000129 0.107930 -0.096057 0.007502 0.097541 -0.093762 -0.004596 0.098661 -0.110736 0.001101 0.108258 -0.104237 -0.002091 0.094293 -0.093843 -0.004866 0.111464 -0.109079 0.006946 0.110204 -0.101641 -0.004114 0.102646 -0.110561 0.006108 0.090606 -0.086127 0.005467 0.099861 -0.104218 0.005562 0.102699 -0.096565 0.007008 0.116974 -0.098740 0.009327 0.106883 -0.098346 -0.000950 0.105369 -0.106353 0.006990 0.097469 -0.099503 0.012589 0.105295 -0.104602 -0.003707 0.096428 -0.106777 -0.009594 0.111940 -0.094031 -0.002026 0.102609 -0.108062 0.002681 0.105690 -0.097783 -0.003931 0.093034 -0.103852 0.002371 0.114694 -0.101714 0.003796 0.103868 -0.104865 0.002001 0.099405 -0.093575 -0.002250 0.102607 -0.110646 -0.000486 0.105986 -0.099485 0.006450 0.109257 -0.087795 0.003543 0.109557 -0.109898 0.011646 0.100205 -0.087038 0.001552 0.113838 -0.096127 -0.003619 0.090019 -0.089075 0.006098 0.111282 -0.106894 -0.012717 0.109180 -0.109756 -0.001368 0.095030 -0.104959 0.001076 0.093633 -0.099701 0.010171 0.116784 -0.092930 -0.000244 0.115354 -0.107419 -0.010880 0.105362 -0.096882 0.004412 0.109573 -0.101576 0.012466 0.111125 -0.093455 -0.001826 0.113191 -0.108313 -0.010828 0.096897 -0.105062 0.009377 0.109689 -0.099330 0.001711 0.105467 -0.091585 -0.003955 0.090424 -0.105991 0.003192 0.104803 -0.094566 0.010778 0.117542 -0.096434 0.015830 0.105636 -0.087915 0.001137 0.096744 -0.091254 -0.001773 0.091912 -0.100474 -0.011606 0.102659 -0.100617 -0.000751 0.104156 -0.110280 0.003655 0.111122 -0.094367 0.002249 0.107534 -0.105377 -0.010410 0.109612 -0.115597 -0.002321 0.109378 -0.100303 0.014553 0.104712 -0.094740 -0.002002 0.108344 -0.101725 0.012517 0.103369 -0.099100 -0.001287 0.108074 -0.108110 0.001099 0.107048 -0.097579 0.004957 0.116962 -0.100655 -0.001112 0.096320 -0.091783 -0.007110 0.101552 -0.110400 -0.002071 0.104460 -0.106034 0.005763 0.098850 -0.097507 -0.002681 0.095821 -0.098495 0.003159 0.107658 -0.099809 -0.001598 0.107246 -0.102616 0.000911 0.091520 -0.117844 -0.004462 0.094499 -0.105615 -0.008680 0.092873 -0.101559 0.003969 0.107692 -0.102447 0.004107 0.120781 -0.087485 0.003153 0.104328 -0.101578 -0.000565 0.106008 -0.092816 0.001402 0.109163 -0.100104 0.008853 0.117149 -0.100697 0.003242 0.098323 -0.098476 0.007857 0.107442 -0.099978 0.000735 0.090209 -0.100394 0.012595 0.112058 -0.099895 -0.003410 0.105212 -0.097401 0.003071 0.105993 -0.113685 0.014917 0.101102 -0.103502 -0.003391 0.110774 -0.104578 -0.000947 0.099901 -0.108755 -0.001546 0.102372 -0.106487 0.001780 0.089107 -0.097213 0.012948 0.106563 -0.098059 0.002029 0.108102 -0.105021 0.002975 0.098441 -0.105104 0.006277 0.094490 -0.103727 -0.001354 0.100393 -0.096053 0.000659 0.101512 -0.094311 0.007911 0.109803 -0.097618 -0.006452 0.102459 -0.094134 0.005832 0.104660 -0.103197 0.021674 0.109990 -0.086084 0.011331 0.109530 -0.102411 0.008370 0.114003 -0.099885 0.005742 0.101448 -0.093893 0.006538 0.114415 -0.093333 0.001088 0.097972 -0.105212 0.003309 0.109062 -0.095814 -0.002730 0.104524 -0.101213 0.014705 0.121832 -0.089335 0.002512 0.108176 -0.105644 0.008743 0.114350 -0.098297 0.002269 0.105700 -0.096786 -0.000210 0.105824 -0.111463 0.001470 0.107279 -0.093631 -0.011093 0.102478 -0.110968 0.003503 0.088287 -0.091819 -0.000839 0.111515 -0.104882 -0.001526 0.098251 -0.096659 -0.004510 0.110507 -0.102678 -0.001780 0.103908 -0.103431 0.005858 0.098005 -0.093084 0.014294 0.110534 -0.093981 -0.006854 0.101771 -0.106484 0.009000 0.104647 -0.106595 0.014137 0.104690 -0.104705 0.003614 0.105648 -0.099136 -0.002525 0.102940 -0.102550 0.001952 0.103190 -0.096782 0.005478 0.103527 -0.089183 0.003480 0.097595 -0.101403 0.005262 0.096562 -0.100389 -0.002369 0.107090 -0.102812 0.001258 0.104937 -0.103447 0.002371 0.108674 -0.091700 -0.006210 0.097394 -0.091209 0.005178 0.117645 -0.100550 -0.001919 0.103613 -0.096722 0.004469 0.105979 -0.104489 -0.006617 0.092508 -0.108967 0.008861 0.110141 -0.103030 -0.010342 0.088624 -0.103991 -0.007866 0.100704 -0.101000 0.000589 0.112954 -0.104767 0.001056 0.108173 -0.092771 -0.000977 0.113580 -0.099808 -0.008052 0.100327 -0.104076 -0.004000 0.107533 -0.107709 -0.009425 0.097899 -0.109288 -0.005948 0.097268 -0.105802 0.007459 0.100808 -0.092619 0.012364 0.111843 -0.093632 0.003553 0.112222 -0.092926 0.048414 0.051926 0.119919 0.050033 0.353461 -0.522602 0.216779 -0.448859 0.277253 -0.471136 0.005123 -0.001495 0.002042 -0.007804 -0.003612 -0.006168 -0.012703 -0.000708 -0.006641 -0.015418 0.000748 0.004074 0.021081 -0.001394 -0.002170 -0.024860 -0.001738 0.002203 -0.003191 -0.001891 -0.013126 -0.017419 -0.003246 0.011855 -0.031261 -0.001650 0.013106 -0.007534 -0.000857 -0.015365 -0.001961 0.001803 0.001960 0.004537 -0.001083 -0.002537 -0.022039 -0.005195 -0.009245 0.006528 -0.000636 -0.007704 0.011515 -0.000885 -0.002138 0.005871 0.002074 -0.001505 0.012681 0.001328 -0.003883 0.001287 -0.001668 -0.004070 0.011964 0.001009 0.006002 -0.002755 0.000605 0.005238 -0.005062 -0.000619 -0.011769 -0.010387 -0.002446 0.009084 0.001874 -0.004118 -0.007783 -0.007993 -0.003859 0.000153 0.007152 -0.003313 -0.012621 0.007248 -0.005682 -0.005960 -0.012459 -0.000167 0.010949 0.017560 -0.002862 0.005746 -0.011050 -0.000133 -0.011252 -0.025110 -0.000551 -0.003603 -0.027067 0.001680 -0.003048 -0.001832 0.002498 -0.001397 -0.012187 0.001423 -0.003944 -0.026031 0.000139 -0.007804 0.021544 -0.002930 -0.005271 -0.002653 0.004272 0.008930 -0.013487 -0.003064 -0.004629 -0.013733 0.000350 -0.013304 -0.026340 0.000779 -0.008130 -0.016647 -0.002888 -0.009194 -0.012224 0.000723 -0.007262 -0.015584 0.000326 -0.007239 0.013692 -0.001229 -0.008842 -0.027854 0.003846 -0.002073 -0.015612 0.008150 -0.005771 -0.003642 -0.004829 -0.006750 -0.030363 -0.001507 0.008600 -0.019307 0.000154 0.012337 0.001288 0.002657 -0.009244 0.000363 -0.000041 0.002980 -0.027178 -0.001148 -0.012486 0.012862 0.002423 -0.005789 0.008179 -0.001192 -0.003790 -0.011486 0.000343 -0.002814 -0.002088 0.001856 0.005226 0.002935 0.007137 -0.006011 -0.004729 0.002392 0.005777 -0.012785 0.003243 -0.017970 -0.005655 0.003077 -0.008737 0.001430 0.000491 0.012345 -0.013161 0.003545 -0.002572 -0.021875 0.000205 -0.006306 0.005698 -0.004325 -0.004393 0.015755 0.000462 -0.001844 0.017769 -0.000043 -0.010644 0.013165 -0.001223 0.003218 0.001909 -0.002983 0.001762 -0.027926 -0.002522 -0.008305 -0.022100 0.003333 -0.003741 0.015039 -0.001604 -0.014009 -0.003630 -0.002846 -0.008023 -0.013535 -0.003215 0.008260 -0.016780 -0.003188 -0.005680 -0.012084 -0.006698 -0.000006 -0.016092 -0.005390 -0.018725 0.010799 -0.004805 -0.010575 0.017158 -0.001165 0.005867 0.010189 0.000915 -0.012311 -0.026896 -0.001128 -0.009193 -0.007667 -0.007411 -0.013013 0.006906 -0.001892 0.001385 -0.011041 0.003977 -0.009498 -0.007104 0.000789 -0.002475 -0.005247 -0.001383 -0.005172 0.008693 -0.001908 -0.000599 -0.010377 0.001181 -0.001579 -0.009559 -0.001774 0.009259 0.004342 -0.002031 0.006696 -0.024009 -0.004509 0.007973 0.009391 -0.001748 0.003006 -0.002629 0.002635 -0.010220 0.020944 -0.007747 0.005905 -0.017555 0.000925 -0.005523 -0.017631 -0.003807 -0.000126 0.009786 -0.001119 -0.002942 -0.019396 -0.002717 0.007894 -0.006502 -0.004633 -0.011796 -0.015497 -0.000880 -0.015330 -0.016903 -0.003151 -0.009182 0.004896 -0.000419 -0.013173 0.012391 -0.002925 -0.004747 -0.001208 -0.002784 -0.002557 -0.020272 0.002123 0.006163 0.014200 0.001052 -0.001640 -0.027380 0.004221 -0.000791 -0.013626 0.001104 -0.010351 -0.024586 0.001844 -0.015577 -0.019198 0.008850 0.000834 -0.022197 -0.002123 -0.008285 0.001921 0.002376 0.000211 -0.001747 0.000035 0.012685 0.002784 -0.001080 0.016351 -0.021717 -0.004149 -0.005466 0.007003 -0.001315 -0.006466 -0.012427 0.004644 -0.013452 0.007740 0.001058 -0.000313 -0.025460 0.002219 0.000812 0.008686 -0.000811 -0.006655 -0.021180 -0.002025 -0.001127 0.006202 -0.002684 -0.009790 0.006424 -0.002171 0.000268 -0.006940 -0.007418 -0.005650 -0.019208 0.005710 0.005208 -0.007490 0.002202 -0.002530 0.003975 0.006850 -0.003513 -0.009278 0.001484 -0.001788 -0.002273 0.002766 -0.000337 -0.015931 -0.005267 0.002374 -0.003604 -0.002361 0.014313 0.003665 -0.000383 -0.013344 0.000431 0.002605 -0.011438 -0.003036 0.001034 0.006155 0.006964 -0.002102 -0.002402 -0.006675 -0.001771 -0.002752 -0.015086 -0.000620 -0.007451 0.010335 -0.002333 -0.012769 -0.002528 -0.001713 -0.004110 -0.005555 -0.001242 -0.000106 0.015301 -0.002606 -0.004101 0.001431 0.001752 0.009850 -0.015908 0.002880 -0.006798 -0.000665 0.001740 0.009689 0.009349 0.002950 -0.008887 -0.015129 -0.000674 -0.004721 -0.010168 -0.000183 0.006597 -0.018776 -0.002788 0.003090 -0.021283 -0.004822 -0.015887 0.005354 -0.001150 -0.005449 0.020248 -0.002968 0.006669 0.012487 0.000052 0.003068 0.006638 0.001268 -0.009452 0.016698 -0.002941 0.003251 -0.024871 -0.000588 0.002962 -0.008605 -0.001034 -0.005108 0.018564 -0.001231 -0.000337 0.000248 -0.001883 -0.004874 0.013486 -0.000043 0.006738 -0.006159 0.004154 0.012000 -0.030290 0.006497 0.003451 -0.010840 0.005930 0.009852 -0.014707 0.002904 0.002800 0.008056 -0.003293 0.007115 0.014157 -0.002964 -0.009259 -0.008299 -0.008116 -0.005311 -0.000537 -0.001770 0.001532 0.005064 -0.001823 0.000797 -0.022885 -0.001945 -0.002172 -0.022444 -0.004231 -0.003923 -0.000617 -0.002033 -0.004833 -0.001504 0.000290 -0.007281 0.023611 -0.003467 0.010987 -0.021155 -0.001645 -0.014037 -0.008419 0.000325 -0.004519 -0.000318 -0.020006 -0.002811 0.004158 0.001568 -0.003945 -0.000093 -0.018721 -0.006391 -0.005779 -0.011309 -0.002388 0.000257 -0.019625 -0.004772 -0.011122 -0.016925 0.000349 -0.001796 -0.005946 -0.003083 0.015315 -0.018669 -0.005647 -0.019913 0.003982 -0.005946 -0.001273 -0.013694 -0.007472 -0.015948 -0.011239 -0.000423 -0.012398 -0.005035 -0.001810 0.000751 -0.013699 -0.004685 0.004167 0.000673 -0.001025 0.004428 0.009513 0.001056 0.002438 -0.014802 0.003455 -0.003787 0.014715 -0.003604 -0.006849 -0.019200 -0.001916 -0.001164 -0.003751 0.005733 -0.012270 -0.002052 0.004409 -0.003133 -0.019217 -0.001208 -0.016944 -0.012941 -0.004799 0.010055 0.004394 -0.003460 0.006100 -0.014852 -0.002422 -0.004291 -0.007628 0.001729 0.007819 0.014090 -0.000670 0.012735 -0.005690 -0.003117 -0.007552 -0.000761 0.000531 0.012083 -0.015927 0.002482 0.008545 -0.002690 -0.006192 -0.000482 -0.001253 -0.005409 -0.012846 -0.016582 -0.002759 0.000160 0.014118 0.003697 -0.006146 -0.000187 0.005900 0.004162 -0.002089 0.001725 -0.009784 -0.001000 -0.002416 0.007771 -0.007668 -0.006342 -0.005103 -0.004347 -0.000835 -0.019631 -0.014239 0.001564 0.011341 0.000479 -0.000193 0.016547 -0.017401 -0.001305 0.017614 0.014536 -0.002895 -0.002621 -0.017179 -0.001804 0.004263 -0.001663 -0.001949 -0.019660 -0.002515 -0.006735 0.001619 -0.016429 0.001869 -0.020336 0.000560 -0.002223 0.014236 0.012962 -0.002350 0.008865 -0.006458 0.001934 0.011404 -0.012103 0.001113 -0.006346 0.006240 0.006982 -0.011844 -0.018543 -0.007126 -0.009270 0.010622 0.000555 -0.007890 0.003902 0.000867 -0.007134 0.004876 -0.004113 0.000729 -0.019263 -0.005603 0.000708 -0.017067 -0.004118 0.006130 -0.013900 -0.001441 0.001427 0.004183 -0.000475 -0.010122 -0.018927 -0.008074 -0.017745 -0.012962 0.000057 -0.014215 -0.015293 -0.000956 -0.006303 0.005429 -0.002089 -0.004102 -0.015951 -0.002468 0.002907 -0.012190 0.001653 0.011812 -0.002735 -0.000392 -0.004955 0.000314 -0.002871 0.000811 -0.016611 -0.004731 0.012033 0.013316 0.000617 -0.006407 0.014785 -0.004798 -0.007309 -0.000508 0.002215 -0.012039 0.010620 -0.000907 0.002950 -0.003507 0.005189 -0.002001 -0.001701 -0.003978 -0.010434 0.009146 -0.003699 -0.006757 0.001672 -0.002834 0.005837 0.009629 0.003512 -0.002885 -0.014340 0.003180 0.007088 0.014071 -0.004909 -0.014283 -0.017483 -0.006676 0.013798 -0.016708 0.000945 -0.007274 0.012932 0.004148 0.000840 -0.008516 -0.000298 0.006832 -0.008943 -0.003598 -0.001815 -0.010522 -0.001885 0.000019 0.012367 -0.005876 0.004970 -0.005667 -0.001610 0.009978 -0.003059 -0.004607 -0.005974 -0.008914 -0.006181 -0.011400 0.004809 -0.006387 -0.006365 0.009510 -0.002474 -0.007457 -0.009148 -0.004770 -0.015234 -0.021364 -0.002220 0.000697 0.010351 -0.003335 -0.013323 0.005339 -0.004485 0.001217 0.005254 -0.001133 0.007256 -0.017169 -0.003872 0.006165 0.014409 0.001775 0.002292 -0.019681 -0.003885 -0.017329 -0.014850 -0.005594 -0.008268 0.011785 -0.002191 0.008986 0.003401 -0.000162 -0.004884 -0.018099 -0.002838 0.001026 -0.013797 0.004137 -0.009395 -0.007164 -0.003156 -0.010681 -0.007551 -0.006539 -0.001163 -0.001979 -0.006396 0.010744 -0.002094 0.005415 -0.001562 -0.011877 -0.004588 -0.004279 -0.007254 -0.000960 -0.005952 -0.012312 0.000449 0.012702 -0.006141 -0.000861 -0.012699 -0.014897 -0.006348 -0.013805 0.006145 0.003941 0.015654 -0.001593 -0.004618 -0.004986 0.002824 0.004080 -0.007638 -0.007515 -0.005137 0.003224 -0.001235 -0.003309 -0.000525 -0.001305 0.000065 0.015415 -0.015470 -0.000114 -0.005927 -0.014221 -0.005645 -0.003562 -0.006725 0.001161 -0.013772 -0.013316 -0.005351 -0.015344 -0.013047 -0.006040 0.006416 -0.011726 0.002446 0.010906 -0.015184 0.005008 -0.004884 0.014631 0.002278 0.005392 -0.005977 -0.000103 -0.005181 0.001443 -0.000117 -0.008153 0.013699 -0.003786 0.012611 -0.014702 0.000342 0.009741 -0.016016 -0.005442 0.013719 -0.013349 0.003665 0.007621 -0.016227 -0.005221 -0.019370 -0.008667 -0.003713 0.008317 -0.019188 -0.002106 -0.001228 -0.009852 0.001868 0.006413 0.001043 0.000641 0.010531 0.000672 0.000905 0.010253 -0.018999 0.001989 0.005277 -0.004241 -0.000080 0.011250 -0.009244 -0.008593 -0.001663 0.013757 0.000164 -0.005802 -0.007171 -0.000435 -0.003135 0.001020 -0.000340 -0.000405 -0.013013 -0.002222 -0.006451 0.016807 -0.000342 -0.007766 -0.009621 -0.003146 0.002710 -0.013824 -0.001870 0.009219 -0.015702 0.008758 -0.013051 0.011979 0.004873 -0.001416 -0.017790 -0.003546 -0.005860 -0.001053 0.001825 0.011506 0.011900 -0.001751 0.003648 0.008683 -0.001248 0.000920 -0.017350 -0.001432 -0.003496 0.007387 -0.003326 -0.004811 -0.000191 -0.002195 0.005795 -0.009900 0.000903 -0.009220 -0.002983 -0.000197 -0.000672 0.004932 -0.000815 0.005981 -0.020753 -0.000987 -0.010959 0.002986 0.000451 0.002423 0.008501 0.000262 0.010803 0.003796 0.001137 0.008040 -0.000065 -0.001772 -0.003755 0.014533 -0.001108 -0.000033 0.015989 -0.001537 -0.011226 -0.019012 -0.000657 0.013197 -0.006695 -0.001309 0.002167 0.006286 0.008703 -0.014912 -0.011395 -0.000159 -0.008844 -0.000970 -0.005155 0.002179 -0.000565 0.023403 0.000049 -0.005458 -0.026694 0.000889 -0.016640 -0.009014 -0.002794 -0.020228 -0.008309 -0.007346 0.008229 -0.028713 0.008216 0.011034 -0.011384 -0.000202 0.002855 -0.018426 0.006226 0.014744 -0.007195 0.002604 0.018543 -0.006676 0.002541 0.012348 -0.008575 -0.010811 -0.021540 -0.005074 -0.012956 0.013410 -0.017874 0.011521 -0.022049 -0.016432 0.006328 -0.007593 0.014255 0.002950 0.010269 -0.017863 0.004630 -0.023142 -0.026830 -0.006339 -0.011439 0.017975 -0.007596 -0.010986 -0.003100 -0.013837 -0.020393 0.013777 -0.003177 -0.022562 -0.031920 0.010859 -0.013453 0.014128 -0.009233 -0.021547 -0.016885 0.004334 -0.019143 0.011370 -0.001886 0.015245 0.000461 -0.000851 -0.006367 -0.022556 -0.007564 0.014013 0.013861 0.003849 0.018830 -0.016500 0.003976 -0.018912 0.009132 0.002334 -0.024058 0.004258 -0.003371 0.014426 0.008443 -0.001192 0.023228 -0.018661 0.001272 -0.026526 -0.003820 -0.002307 0.012656 -0.030550 -0.008492 -0.021232 -0.022054 0.007590 -0.007742 -0.031883 0.007101 0.018818 0.010001 -0.006612 0.002534 -0.000799 -0.005425 0.005402 0.014926 0.001839 -0.013413 0.022615 0.002462 -0.018731 -0.012687 0.006693 -0.014074 0.011390 -0.003424 -0.004236 -0.030015 -0.006260 -0.005398 0.003990 0.001510 -0.021960 0.003042 0.000147 -0.004310 -0.004804 -0.010652 0.007284 -0.000789 0.003178 -0.003799 0.006777 -0.004150 0.008212 -0.008231 -0.015035 0.015742 -0.008494 -0.015178 -0.000310 -0.009607 0.006491 -0.012828 -0.034814 0.008637 0.011038 -0.034744 0.006000 -0.009075 0.001144 0.011134 -0.001150 0.003616 -0.009848 -0.006111 0.020621 -0.003248 0.020345 -0.005178 0.003801 0.004855 -0.023979 0.002799 -0.018061 0.022729 -0.000864 0.007023 0.003881 0.005187 0.010749 -0.009498 -0.007178 0.000197 0.023125 -0.004624 0.008801 -0.011514 0.000460 0.012275 0.016635 -0.001656 -0.001816 -0.001074 0.002659 0.024808 -0.012026 0.006708 0.020333 -0.027737 -0.009152 0.001361 -0.013193 -0.001819 0.004154 0.002509 -0.009907 -0.016473 -0.000830 0.004450 0.009310 0.012972 0.001865 -0.012319 0.010162 0.006354 0.007788 0.002022 -0.007244 -0.002559 -0.026121 0.009551 0.011828 -0.006715 0.005343 -0.024261 -0.031917 -0.009407 0.009306 0.012928 -0.005393 -0.005904 0.005972 -0.000445 0.001861 0.020200 -0.006394 -0.029766 0.011040 0.010095 0.017751 -0.011994 -0.005490 -0.008280 -0.020547 -0.009965 -0.003810 -0.009466 -0.003607 -0.016551 -0.026610 0.005425 -0.002881 -0.009699 0.008172 -0.003541 0.005829 0.007335 0.005530 -0.005733 0.003650 0.006646 0.001533 -0.009378 0.008412 -0.022014 0.003480 -0.007246 0.006896 -0.000745 -0.014201 0.013932 -0.009885 -0.022716 0.002288 0.008279 -0.006566 0.019259 -0.004428 0.005528 -0.019789 -0.001793 -0.017349 -0.021985 -0.009623 0.007888 -0.024987 -0.002352 0.010477 0.020809 -0.001515 -0.027777 0.015774 0.007228 0.010751 -0.018805 -0.005197 0.010787 -0.010251 -0.013915 -0.004959 -0.006977 -0.002149 -0.004713 -0.034612 -0.012726 -0.017440 -0.026315 -0.003944 -0.023073 -0.000975 -0.009789 -0.015576 -0.016874 0.003372 0.012348 -0.002445 0.010988 -0.013940 0.005299 0.003796 0.001319 0.009884 -0.003869 -0.006651 0.004337 0.012027 0.001026 -0.010818 -0.002929 -0.021704 -0.015433 -0.015135 -0.011090 0.010270 0.011643 -0.003445 -0.000040 -0.002612 -0.026007 0.019573 -0.002265 -0.021318 -0.015901 -0.004928 -0.004671 -0.000442 -0.002103 0.019821 -0.026367 -0.017947 -0.030391 0.001331 0.007802 0.018168 -0.003733 -0.001774 0.010912 0.010626 -0.004427 -0.009214 -0.034176 0.006783 0.009700 -0.015674 -0.004445 -0.003446 0.019796 0.005058 -0.021750 -0.010717 0.000792 0.018245 -0.015119 0.003882 -0.001861 -0.016716 0.001391 -0.000704 -0.020806 -0.002072 -0.003084 -0.008971 0.000198 -0.017680 -0.016900 -0.008491 0.004705 -0.007152 -0.010921 -0.008931 -0.004197 -0.005053 -0.009755 0.002382 0.006670 0.010444 -0.017529 -0.008858 0.007786 -0.001899 -0.009930 0.007345 -0.031031 0.003126 0.001667 0.022331 -0.003440 -0.019149 0.026558 -0.002505 -0.020030 -0.016993 0.004941 -0.012847 0.001638 -0.005115 -0.009162 -0.017247 -0.003981 -0.014195 -0.026774 0.001133 0.007389 0.000236 0.001518 -0.017283 0.007022 0.001660 0.015136 0.010141 0.013043 0.006946 -0.029990 0.006715 -0.008272 -0.003176 0.004315 -0.003413 -0.015145 0.001600 0.005213 0.006592 -0.002746 -0.019712 -0.030994 -0.010435 -0.010386 -0.020312 0.009437 -0.013804 -0.018153 -0.013764 -0.017235 0.012175 0.011585 0.013974 -0.026467 -0.007922 -0.020371 0.011064 0.007708 -0.016122 0.018209 -0.003018 -0.010331 0.004516 -0.003359 -0.010713 0.026204 -0.003840 -0.015868 -0.013889 0.002869 0.011359 0.016491 -0.005443 -0.014862 0.012334 0.007273 0.014109 0.006111 -0.004519 0.001255 -0.028126 -0.002347 0.021626 -0.002742 0.005111 0.012299 0.025821 0.002167 -0.026750 -0.018557 -0.001078 0.017839 -0.000710 0.000605 -0.001525 -0.020026 -0.011951 -0.002948 -0.014882 0.001835 0.009182 -0.030089 0.002149 0.004432 0.004937 0.003072 -0.017416 -0.019184 -0.003718 0.011432 0.020825 -0.003322 0.006976 -0.028176 0.018542 -0.019672 -0.009473 -0.018722 -0.002634 -0.001639 -0.019251 0.004393 -0.004335 -0.011004 0.005523 -0.009018 -0.018500 0.002452 -0.002432 -0.005180 -0.003419 -0.014031 -0.012897 -0.005068 -0.003653 -0.017746 -0.000386 0.001618 -0.018029 -0.009843 0.007098 -0.024843 0.001415 0.000195 -0.020897 -0.000024 -0.001371 -0.012698 -0.007865 -0.001423 -0.023274 0.000027 -0.003201 -0.011328 -0.005648 -0.004119 -0.020589 -0.006102 -0.000765 -0.016952 -0.010858 -0.001449 -0.013200 -0.007263 -0.004119 -0.011868 -0.005427 -0.009065 -0.011994 0.000453 -0.004480 -0.016561 0.000931 -0.001831 -0.010159 -0.000267 -0.009529 -0.011073 -0.004307 -0.004930 -0.012362 -0.002781 -0.015378 -0.014237 -0.004154 -0.009199 -0.014270 -0.003308 -0.000881 -0.007077 -0.012786 -0.005964 -0.009335 -0.009829 -0.006985 -0.012147 -0.003597 -0.010767 -0.010542 -0.011214 -0.006001 -0.009810 -0.007647 -0.010406 -0.004821 -0.017697 -0.006372 -0.011272 -0.020292 0.002577 -0.008709 -0.017664 -0.006853 -0.014901 -0.002891 -0.005162 -0.015813 -0.001729 -0.003761 -0.012218 -0.001674 -0.008937 -0.029184 0.003069 0.004207 -0.013598 0.003931 -0.014860 -0.010794 0.002449 -0.015084 -0.011073 -0.003340 -0.017602 -0.015530 0.001095 -0.013572 -0.022540 0.011107 -0.008440 -0.009599 -0.000609 -0.010629 -0.012151 -0.005685 -0.002475 -0.013420 -0.006174 -0.007144 -0.008675 -0.009859 -0.007846 -0.011477 -0.001900 -0.018659 -0.012522 -0.001405 -0.012556 -0.015009 0.000893 -0.003488 -0.014665 -0.006835 -0.010900 -0.015499 -0.014760 0.003329 -0.014474 -0.013722 -0.006064 -0.008689 -0.007750 -0.004619 -0.024179 0.003926 0.003452 -0.009607 -0.004014 -0.010256 -0.011701 -0.004218 -0.002469 -0.021791 -0.006427 -0.002226 -0.014908 -0.000746 -0.005426 -0.021626 -0.000591 -0.006780 -0.015394 -0.000705 -0.010588 -0.013144 -0.016882 0.001787 -0.012633 -0.002358 -0.006837 -0.018186 -0.003901 -0.006384 -0.010061 -0.005763 -0.013385 -0.008259 -0.007322 -0.007346 -0.018189 0.005032 -0.004024 -0.012785 -0.000883 -0.003083 -0.021610 -0.006072 0.009559 -0.018206 0.010907 -0.009466 -0.017372 -0.000804 -0.008037 -0.020372 0.004202 -0.006908 -0.012984 -0.003025 -0.012981 -0.008162 -0.001232 -0.015495 -0.009026 -0.010320 -0.010738 -0.017288 -0.005385 -0.006296 -0.009648 -0.011707 -0.009895 -0.002352 -0.014939 -0.005634 -0.012152 -0.013260 -0.004745 -0.016665 -0.006580 -0.005776 -0.011521 -0.011755 -0.007329 -0.009494 -0.015512 -0.005521 -0.007694 -0.011617 -0.004344 -0.008169 -0.006643 -0.008321 -0.017261 0.001394 -0.009451 -0.014185 -0.009276 -0.006317 -0.022158 0.005574 -0.011524 -0.020488 -0.000993 -0.003890 -0.016807 0.005088 -0.008462 -0.016222 0.003991 -0.007806 -0.010759 0.008109 -0.019134 -0.008011 0.003307 -0.016498 -0.006379 -0.006174 -0.015819 -0.014867 -0.008335 -0.001741 -0.004125 -0.015298 -0.008614 -0.013578 -0.011309 -0.002643 -0.012517 -0.007506 -0.007667 -0.012158 -0.002720 -0.010410 -0.016149 0.003120 -0.014225 -0.024211 0.006731 -0.006086 -0.012824 0.001676 -0.014155 -0.017597 0.000440 -0.014072 -0.001479 -0.009383 -0.013326 -0.010457 0.000436 -0.015637 -0.013384 -0.003518 -0.009514 -0.017606 -0.001204 -0.008543 -0.018290 0.002997 -0.003040 -0.012896 0.005703 -0.010474 -0.011848 -0.005380 -0.005933 -0.012981 -0.009039 -0.012057 -0.019720 -0.007945 0.000883 -0.012959 -0.007580 -0.008521 -0.018594 -0.005287 0.004376 -0.017226 -0.002936 -0.005569 -0.013692 -0.003895 -0.009259 -0.016605 0.002430 -0.010746 -0.023461 0.000708 -0.001114 -0.013462 -0.000746 -0.005775 -0.011888 -0.010199 -0.001670 -0.008077 -0.005958 -0.009309 -0.014140 -0.002979 -0.010235 -0.013607 -0.004537 -0.010073 -0.020524 0.004256 -0.007559 -0.017123 0.001668 -0.005251 -0.014321 0.000282 -0.007804 -0.015402 -0.006715 -0.001941 -0.010201 -0.004038 -0.006967 -0.008162 -0.009793 -0.004021 -0.008454 -0.008582 -0.003195 -0.014597 -0.013561 0.009501 -0.021443 -0.001425 -0.003563 -0.013916 -0.003778 -0.005636 -0.017015 -0.003008 -0.006826 -0.022698 0.005267 -0.005208 -0.016929 0.006328 -0.008103 -0.013422 -0.009807 -0.002319 -0.015477 -0.002082 -0.007466 -0.014516 -0.003289 -0.002992 -0.015262 0.000912 -0.011628 -0.007013 -0.000941 -0.014688 -0.021522 -0.011027 0.002980 -0.017277 -0.002179 -0.002489 -0.013809 -0.012460 0.000604 -0.015029 -0.006069 -0.001297 -0.016744 -0.007738 -0.005268 -0.012253 -0.007959 -0.007395 -0.013453 -0.013619 -0.005255 -0.015757 -0.003324 -0.008518 -0.005707 -0.005086 -0.011226 -0.017254 -0.003681 -0.004725 -0.019196 -0.005161 -0.004228 -0.013969 -0.000790 -0.009957 -0.015787 0.001065 -0.010468 -0.011463 -0.002080 -0.014730 -0.009460 -0.006090 -0.012341 -0.009351 -0.001631 -0.006907 -0.013283 0.008824 -0.007701 -0.013632 0.002258 -0.004485 -0.012286 0.004777 -0.008558 -0.011997 -0.007050 -0.004238 -0.017800 -0.007556 -0.004790 -0.006396 -0.010256 -0.010157 -0.008347 -0.005321 -0.013061 -0.014323 -0.003624 -0.007320 -0.012716 -0.001057 -0.006186 -0.012237 -0.007767 -0.005033 -0.014862 -0.006238 -0.010624 -0.012384 -0.008496 -0.004905 -0.013250 -0.007229 -0.002876 -0.007759 -0.012295 -0.013791 -0.006434 -0.010199 -0.014899 -0.007197 -0.003650 -0.011140 -0.013664 -0.003199 -0.009746 0.009499 -0.012673 -0.023738 -0.013592 -0.011748 -0.010983 -0.012096 -0.011973 -0.003918 -0.002215
0.028056 -0.068953 0.092995 0.047144 -0.035359 0.094967 0.074031 0.067222 0.039714 -0.004364 -0.039846 -0.037687 0.007270 -0.059165 0.051463 0.108048 0.020056 0.023126 -0.007912 -0.033247
